|--- manufacturer_manufacturer_jac_qgm_3_qgm_3 <= 0.57
|   |--- title_title_jac_dlm_dc0_dlm_dc0 <= 0.19
|   |   |--- price_price_exm <= 0.50
|   |   |   |--- title_title_jac_dlm_dc0_dlm_dc0 <= 0.13
|   |   |   |   |--- price_price_anm <= 0.84
|   |   |   |   |   |--- title_title_dice_dlm_dc0_dlm_dc0 <= 0.16
|   |   |   |   |   |   |--- class: 0.0
|   |   |   |   |   |--- title_title_dice_dlm_dc0_dlm_dc0 >  0.16
|   |   |   |   |   |   |--- price_price_anm <= 0.58
|   |   |   |   |   |   |   |--- class: 0.0
|   |   |   |   |   |   |--- price_price_anm >  0.58
|   |   |   |   |   |   |   |--- title_title_dice_dlm_dc0_dlm_dc0 <= 0.18
|   |   |   |   |   |   |   |   |--- manufacturer_manufacturer_overlap_qgm_3_qgm_3 <= inf
|   |   |   |   |   |   |   |   |   |--- class: 0.0
|   |   |   |   |   |   |   |   |--- manufacturer_manufacturer_overlap_qgm_3_qgm_3 >  inf
|   |   |   |   |   |   |   |   |   |--- title_title_overlap_dlm_dc0_dlm_dc0 <= 1.50
|   |   |   |   |   |   |   |   |   |   |--- title_title_cos_dlm_dc0_dlm_dc0 <= 0.18
|   |   |   |   |   |   |   |   |   |   |   |--- truncated branch of depth 3
|   |   |   |   |   |   |   |   |   |   |--- title_title_cos_dlm_dc0_dlm_dc0 >  0.18
|   |   |   |   |   |   |   |   |   |   |   |--- class: 0.0
|   |   |   |   |   |   |   |   |   |--- title_title_overlap_dlm_dc0_dlm_dc0 >  1.50
|   |   |   |   |   |   |   |   |   |   |--- price_price_lev_dist <= inf
|   |   |   |   |   |   |   |   |   |   |   |--- class: 0.0
|   |   |   |   |   |   |   |   |   |   |--- price_price_lev_dist >  inf
|   |   |   |   |   |   |   |   |   |   |   |--- truncated branch of depth 4
|   |   |   |   |   |   |   |--- title_title_dice_dlm_dc0_dlm_dc0 >  0.18
|   |   |   |   |   |   |   |   |--- price_price_anm <= 0.58
|   |   |   |   |   |   |   |   |   |--- class: 1.0
|   |   |   |   |   |   |   |   |--- price_price_anm >  0.58
|   |   |   |   |   |   |   |   |   |--- class: 0.0
|   |   |   |   |--- price_price_anm >  0.84
|   |   |   |   |   |--- price_price_anm <= 0.84
|   |   |   |   |   |   |--- title_title_overlap_dlm_dc0_dlm_dc0 <= 1.00
|   |   |   |   |   |   |   |--- class: 0.0
|   |   |   |   |   |   |--- title_title_overlap_dlm_dc0_dlm_dc0 >  1.00
|   |   |   |   |   |   |   |--- class: 1.0
|   |   |   |   |   |--- price_price_anm >  0.84
|   |   |   |   |   |   |--- price_price_lev_dist <= 2.50
|   |   |   |   |   |   |   |--- title_title_cos_dlm_dc0_dlm_dc0 <= 0.27
|   |   |   |   |   |   |   |   |--- class: 0.0
|   |   |   |   |   |   |   |--- title_title_cos_dlm_dc0_dlm_dc0 >  0.27
|   |   |   |   |   |   |   |   |--- class: 1.0
|   |   |   |   |   |   |--- price_price_lev_dist >  2.50
|   |   |   |   |   |   |   |--- manufacturer_manufacturer_overlap_qgm_3_qgm_3 <= inf
|   |   |   |   |   |   |   |   |--- class: 0.0
|   |   |   |   |   |   |   |--- manufacturer_manufacturer_overlap_qgm_3_qgm_3 >  inf
|   |   |   |   |   |   |   |   |--- title_title_jac_dlm_dc0_dlm_dc0 <= 0.10
|   |   |   |   |   |   |   |   |   |--- class: 0.0
|   |   |   |   |   |   |   |   |--- title_title_jac_dlm_dc0_dlm_dc0 >  0.10
|   |   |   |   |   |   |   |   |   |--- title_title_dice_dlm_dc0_dlm_dc0 <= 0.21
|   |   |   |   |   |   |   |   |   |   |--- price_price_anm <= 0.88
|   |   |   |   |   |   |   |   |   |   |   |--- truncated branch of depth 5
|   |   |   |   |   |   |   |   |   |   |--- price_price_anm >  0.88
|   |   |   |   |   |   |   |   |   |   |   |--- class: 0.0
|   |   |   |   |   |   |   |   |   |--- title_title_dice_dlm_dc0_dlm_dc0 >  0.21
|   |   |   |   |   |   |   |   |   |   |--- class: 0.0
|   |   |   |--- title_title_jac_dlm_dc0_dlm_dc0 >  0.13
|   |   |   |   |--- price_price_anm <= 0.74
|   |   |   |   |   |--- price_price_lev_dist <= 3.50
|   |   |   |   |   |   |--- class: 0.0
|   |   |   |   |   |--- price_price_lev_dist >  3.50
|   |   |   |   |   |   |--- title_title_jac_dlm_dc0_dlm_dc0 <= 0.18
|   |   |   |   |   |   |   |--- class: 0.0
|   |   |   |   |   |   |--- title_title_jac_dlm_dc0_dlm_dc0 >  0.18
|   |   |   |   |   |   |   |--- title_title_overlap_dlm_dc0_dlm_dc0 <= 2.50
|   |   |   |   |   |   |   |   |--- title_title_cos_dlm_dc0_dlm_dc0 <= 0.31
|   |   |   |   |   |   |   |   |   |--- class: 0.0
|   |   |   |   |   |   |   |   |--- title_title_cos_dlm_dc0_dlm_dc0 >  0.31
|   |   |   |   |   |   |   |   |   |--- price_price_anm <= 0.60
|   |   |   |   |   |   |   |   |   |   |--- class: 0.0
|   |   |   |   |   |   |   |   |   |--- price_price_anm >  0.60
|   |   |   |   |   |   |   |   |   |   |--- title_title_cos_dlm_dc0_dlm_dc0 <= 0.32
|   |   |   |   |   |   |   |   |   |   |   |--- truncated branch of depth 3
|   |   |   |   |   |   |   |   |   |   |--- title_title_cos_dlm_dc0_dlm_dc0 >  0.32
|   |   |   |   |   |   |   |   |   |   |   |--- class: 0.0
|   |   |   |   |   |   |   |--- title_title_overlap_dlm_dc0_dlm_dc0 >  2.50
|   |   |   |   |   |   |   |   |--- class: 0.0
|   |   |   |   |--- price_price_anm >  0.74
|   |   |   |   |   |--- title_title_cos_dlm_dc0_dlm_dc0 <= 0.31
|   |   |   |   |   |   |--- price_price_anm <= 0.95
|   |   |   |   |   |   |   |--- manufacturer_manufacturer_overlap_qgm_3_qgm_3 <= 0.50
|   |   |   |   |   |   |   |   |--- title_title_jac_dlm_dc0_dlm_dc0 <= 0.16
|   |   |   |   |   |   |   |   |   |--- class: 0.0
|   |   |   |   |   |   |   |   |--- title_title_jac_dlm_dc0_dlm_dc0 >  0.16
|   |   |   |   |   |   |   |   |   |--- manufacturer_manufacturer_lev_dist <= 6.00
|   |   |   |   |   |   |   |   |   |   |--- class: 1.0
|   |   |   |   |   |   |   |   |   |--- manufacturer_manufacturer_lev_dist >  6.00
|   |   |   |   |   |   |   |   |   |   |--- class: 0.0
|   |   |   |   |   |   |   |--- manufacturer_manufacturer_overlap_qgm_3_qgm_3 >  0.50
|   |   |   |   |   |   |   |   |--- price_price_anm <= 0.75
|   |   |   |   |   |   |   |   |   |--- class: 1.0
|   |   |   |   |   |   |   |   |--- price_price_anm >  0.75
|   |   |   |   |   |   |   |   |   |--- title_title_dice_dlm_dc0_dlm_dc0 <= 0.24
|   |   |   |   |   |   |   |   |   |   |--- title_title_cos_dlm_dc0_dlm_dc0 <= 0.27
|   |   |   |   |   |   |   |   |   |   |   |--- class: 0.0
|   |   |   |   |   |   |   |   |   |   |--- title_title_cos_dlm_dc0_dlm_dc0 >  0.27
|   |   |   |   |   |   |   |   |   |   |   |--- class: 1.0
|   |   |   |   |   |   |   |   |   |--- title_title_dice_dlm_dc0_dlm_dc0 >  0.24
|   |   |   |   |   |   |   |   |   |   |--- title_title_overlap_dlm_dc0_dlm_dc0 <= 4.50
|   |   |   |   |   |   |   |   |   |   |   |--- class: 0.0
|   |   |   |   |   |   |   |   |   |   |--- title_title_overlap_dlm_dc0_dlm_dc0 >  4.50
|   |   |   |   |   |   |   |   |   |   |   |--- truncated branch of depth 2
|   |   |   |   |   |   |--- price_price_anm >  0.95
|   |   |   |   |   |   |   |--- title_title_jac_dlm_dc0_dlm_dc0 <= 0.15
|   |   |   |   |   |   |   |   |--- title_title_overlap_dlm_dc0_dlm_dc0 <= 1.50
|   |   |   |   |   |   |   |   |   |--- class: 0.0
|   |   |   |   |   |   |   |   |--- title_title_overlap_dlm_dc0_dlm_dc0 >  1.50
|   |   |   |   |   |   |   |   |   |--- manufacturer_manufacturer_dice_qgm_3_qgm_3 <= inf
|   |   |   |   |   |   |   |   |   |   |--- price_price_anm <= 0.98
|   |   |   |   |   |   |   |   |   |   |   |--- class: 0.0
|   |   |   |   |   |   |   |   |   |   |--- price_price_anm >  0.98
|   |   |   |   |   |   |   |   |   |   |   |--- class: 1.0
|   |   |   |   |   |   |   |   |   |--- manufacturer_manufacturer_dice_qgm_3_qgm_3 >  inf
|   |   |   |   |   |   |   |   |   |   |--- price_price_anm <= 0.95
|   |   |   |   |   |   |   |   |   |   |   |--- truncated branch of depth 3
|   |   |   |   |   |   |   |   |   |   |--- price_price_anm >  0.95
|   |   |   |   |   |   |   |   |   |   |   |--- truncated branch of depth 3
|   |   |   |   |   |   |   |--- title_title_jac_dlm_dc0_dlm_dc0 >  0.15
|   |   |   |   |   |   |   |   |--- class: 0.0
|   |   |   |   |   |--- title_title_cos_dlm_dc0_dlm_dc0 >  0.31
|   |   |   |   |   |   |--- title_title_dice_dlm_dc0_dlm_dc0 <= 0.31
|   |   |   |   |   |   |   |--- title_title_cos_dlm_dc0_dlm_dc0 <= 0.32
|   |   |   |   |   |   |   |   |--- manufacturer_manufacturer_lev_dist <= inf
|   |   |   |   |   |   |   |   |   |--- class: 0.0
|   |   |   |   |   |   |   |   |--- manufacturer_manufacturer_lev_dist >  inf
|   |   |   |   |   |   |   |   |   |--- title_title_cos_dlm_dc0_dlm_dc0 <= 0.31
|   |   |   |   |   |   |   |   |   |   |--- class: 1.0
|   |   |   |   |   |   |   |   |   |--- title_title_cos_dlm_dc0_dlm_dc0 >  0.31
|   |   |   |   |   |   |   |   |   |   |--- price_price_anm <= 0.87
|   |   |   |   |   |   |   |   |   |   |   |--- truncated branch of depth 8
|   |   |   |   |   |   |   |   |   |   |--- price_price_anm >  0.87
|   |   |   |   |   |   |   |   |   |   |   |--- class: 0.0
|   |   |   |   |   |   |   |--- title_title_cos_dlm_dc0_dlm_dc0 >  0.32
|   |   |   |   |   |   |   |   |--- manufacturer_manufacturer_lev_dist <= 13.00
|   |   |   |   |   |   |   |   |   |--- manufacturer_manufacturer_dice_qgm_3_qgm_3 <= 0.47
|   |   |   |   |   |   |   |   |   |   |--- class: 0.0
|   |   |   |   |   |   |   |   |   |--- manufacturer_manufacturer_dice_qgm_3_qgm_3 >  0.47
|   |   |   |   |   |   |   |   |   |   |--- price_price_lev_dist <= 2.50
|   |   |   |   |   |   |   |   |   |   |   |--- truncated branch of depth 6
|   |   |   |   |   |   |   |   |   |   |--- price_price_lev_dist >  2.50
|   |   |   |   |   |   |   |   |   |   |   |--- truncated branch of depth 8
|   |   |   |   |   |   |   |   |--- manufacturer_manufacturer_lev_dist >  13.00
|   |   |   |   |   |   |   |   |   |--- title_title_jac_dlm_dc0_dlm_dc0 <= 0.16
|   |   |   |   |   |   |   |   |   |   |--- class: 1.0
|   |   |   |   |   |   |   |   |   |--- title_title_jac_dlm_dc0_dlm_dc0 >  0.16
|   |   |   |   |   |   |   |   |   |   |--- class: 0.0
|   |   |   |   |   |   |--- title_title_dice_dlm_dc0_dlm_dc0 >  0.31
|   |   |   |   |   |   |   |--- class: 0.0
|   |   |--- price_price_exm >  0.50
|   |   |   |--- title_title_cos_dlm_dc0_dlm_dc0 <= 0.27
|   |   |   |   |--- class: 0.0
|   |   |   |--- title_title_cos_dlm_dc0_dlm_dc0 >  0.27
|   |   |   |   |--- title_title_cos_dlm_dc0_dlm_dc0 <= 0.28
|   |   |   |   |   |--- class: 1.0
|   |   |   |   |--- title_title_cos_dlm_dc0_dlm_dc0 >  0.28
|   |   |   |   |   |--- class: 0.0
|   |--- title_title_jac_dlm_dc0_dlm_dc0 >  0.19
|   |   |--- price_price_anm <= 0.51
|   |   |   |--- manufacturer_manufacturer_jac_qgm_3_qgm_3 <= inf
|   |   |   |   |--- class: 0.0
|   |   |   |--- manufacturer_manufacturer_jac_qgm_3_qgm_3 >  inf
|   |   |   |   |--- title_title_cos_dlm_dc0_dlm_dc0 <= 0.64
|   |   |   |   |   |--- title_title_jac_dlm_dc0_dlm_dc0 <= 0.24
|   |   |   |   |   |   |--- class: 0.0
|   |   |   |   |   |--- title_title_jac_dlm_dc0_dlm_dc0 >  0.24
|   |   |   |   |   |   |--- price_price_anm <= 0.25
|   |   |   |   |   |   |   |--- class: 0.0
|   |   |   |   |   |   |--- price_price_anm >  0.25
|   |   |   |   |   |   |   |--- title_title_cos_dlm_dc0_dlm_dc0 <= 0.44
|   |   |   |   |   |   |   |   |--- class: 0.0
|   |   |   |   |   |   |   |--- title_title_cos_dlm_dc0_dlm_dc0 >  0.44
|   |   |   |   |   |   |   |   |--- title_title_jac_dlm_dc0_dlm_dc0 <= 0.28
|   |   |   |   |   |   |   |   |   |--- title_title_overlap_dlm_dc0_dlm_dc0 <= 3.50
|   |   |   |   |   |   |   |   |   |   |--- price_price_lev_dist <= 3.50
|   |   |   |   |   |   |   |   |   |   |   |--- truncated branch of depth 2
|   |   |   |   |   |   |   |   |   |   |--- price_price_lev_dist >  3.50
|   |   |   |   |   |   |   |   |   |   |   |--- truncated branch of depth 4
|   |   |   |   |   |   |   |   |   |--- title_title_overlap_dlm_dc0_dlm_dc0 >  3.50
|   |   |   |   |   |   |   |   |   |   |--- class: 0.0
|   |   |   |   |   |   |   |   |--- title_title_jac_dlm_dc0_dlm_dc0 >  0.28
|   |   |   |   |   |   |   |   |   |--- title_title_cos_dlm_dc0_dlm_dc0 <= 0.55
|   |   |   |   |   |   |   |   |   |   |--- title_title_cos_dlm_dc0_dlm_dc0 <= 0.45
|   |   |   |   |   |   |   |   |   |   |   |--- truncated branch of depth 2
|   |   |   |   |   |   |   |   |   |   |--- title_title_cos_dlm_dc0_dlm_dc0 >  0.45
|   |   |   |   |   |   |   |   |   |   |   |--- class: 0.0
|   |   |   |   |   |   |   |   |   |--- title_title_cos_dlm_dc0_dlm_dc0 >  0.55
|   |   |   |   |   |   |   |   |   |   |--- title_title_dice_dlm_dc0_dlm_dc0 <= 0.48
|   |   |   |   |   |   |   |   |   |   |   |--- truncated branch of depth 2
|   |   |   |   |   |   |   |   |   |   |--- title_title_dice_dlm_dc0_dlm_dc0 >  0.48
|   |   |   |   |   |   |   |   |   |   |   |--- truncated branch of depth 8
|   |   |   |   |--- title_title_cos_dlm_dc0_dlm_dc0 >  0.64
|   |   |   |   |   |--- title_title_overlap_dlm_dc0_dlm_dc0 <= 3.50
|   |   |   |   |   |   |--- title_title_jac_dlm_dc0_dlm_dc0 <= 0.63
|   |   |   |   |   |   |   |--- class: 0.0
|   |   |   |   |   |   |--- title_title_jac_dlm_dc0_dlm_dc0 >  0.63
|   |   |   |   |   |   |   |--- title_title_jac_dlm_dc0_dlm_dc0 <= 0.71
|   |   |   |   |   |   |   |   |--- class: 1.0
|   |   |   |   |   |   |   |--- title_title_jac_dlm_dc0_dlm_dc0 >  0.71
|   |   |   |   |   |   |   |   |--- title_title_overlap_dlm_dc0_dlm_dc0 <= 2.50
|   |   |   |   |   |   |   |   |   |--- class: 0.0
|   |   |   |   |   |   |   |   |--- title_title_overlap_dlm_dc0_dlm_dc0 >  2.50
|   |   |   |   |   |   |   |   |   |--- price_price_anm <= 0.39
|   |   |   |   |   |   |   |   |   |   |--- class: 0.0
|   |   |   |   |   |   |   |   |   |--- price_price_anm >  0.39
|   |   |   |   |   |   |   |   |   |   |--- title_title_jac_dlm_dc0_dlm_dc0 <= 0.88
|   |   |   |   |   |   |   |   |   |   |   |--- class: 0.0
|   |   |   |   |   |   |   |   |   |   |--- title_title_jac_dlm_dc0_dlm_dc0 >  0.88
|   |   |   |   |   |   |   |   |   |   |   |--- truncated branch of depth 2
|   |   |   |   |   |--- title_title_overlap_dlm_dc0_dlm_dc0 >  3.50
|   |   |   |   |   |   |--- price_price_lev_dist <= 3.50
|   |   |   |   |   |   |   |--- price_price_anm <= 0.24
|   |   |   |   |   |   |   |   |--- class: 0.0
|   |   |   |   |   |   |   |--- price_price_anm >  0.24
|   |   |   |   |   |   |   |   |--- title_title_jac_dlm_dc0_dlm_dc0 <= 0.92
|   |   |   |   |   |   |   |   |   |--- price_price_anm <= 0.31
|   |   |   |   |   |   |   |   |   |   |--- class: 0.0
|   |   |   |   |   |   |   |   |   |--- price_price_anm >  0.31
|   |   |   |   |   |   |   |   |   |   |--- title_title_jac_dlm_dc0_dlm_dc0 <= 0.76
|   |   |   |   |   |   |   |   |   |   |   |--- truncated branch of depth 10
|   |   |   |   |   |   |   |   |   |   |--- title_title_jac_dlm_dc0_dlm_dc0 >  0.76
|   |   |   |   |   |   |   |   |   |   |   |--- truncated branch of depth 2
|   |   |   |   |   |   |   |   |--- title_title_jac_dlm_dc0_dlm_dc0 >  0.92
|   |   |   |   |   |   |   |   |   |--- price_price_anm <= 0.48
|   |   |   |   |   |   |   |   |   |   |--- price_price_lev_dist <= 2.50
|   |   |   |   |   |   |   |   |   |   |   |--- class: 0.0
|   |   |   |   |   |   |   |   |   |   |--- price_price_lev_dist >  2.50
|   |   |   |   |   |   |   |   |   |   |   |--- truncated branch of depth 3
|   |   |   |   |   |   |   |   |   |--- price_price_anm >  0.48
|   |   |   |   |   |   |   |   |   |   |--- class: 0.0
|   |   |   |   |   |   |--- price_price_lev_dist >  3.50
|   |   |   |   |   |   |   |--- price_price_anm <= 0.32
|   |   |   |   |   |   |   |   |--- title_title_dice_dlm_dc0_dlm_dc0 <= 0.87
|   |   |   |   |   |   |   |   |   |--- title_title_dice_dlm_dc0_dlm_dc0 <= 0.85
|   |   |   |   |   |   |   |   |   |   |--- price_price_lev_dist <= 4.50
|   |   |   |   |   |   |   |   |   |   |   |--- class: 0.0
|   |   |   |   |   |   |   |   |   |   |--- price_price_lev_dist >  4.50
|   |   |   |   |   |   |   |   |   |   |   |--- truncated branch of depth 2
|   |   |   |   |   |   |   |   |   |--- title_title_dice_dlm_dc0_dlm_dc0 >  0.85
|   |   |   |   |   |   |   |   |   |   |--- class: 1.0
|   |   |   |   |   |   |   |   |--- title_title_dice_dlm_dc0_dlm_dc0 >  0.87
|   |   |   |   |   |   |   |   |   |--- class: 0.0
|   |   |   |   |   |   |   |--- price_price_anm >  0.32
|   |   |   |   |   |   |   |   |--- class: 0.0
|   |   |--- price_price_anm >  0.51
|   |   |   |--- price_price_lev_dist <= 3.50
|   |   |   |   |--- manufacturer_manufacturer_jac_qgm_3_qgm_3 <= 0.11
|   |   |   |   |   |--- price_price_anm <= 0.98
|   |   |   |   |   |   |--- class: 0.0
|   |   |   |   |   |--- price_price_anm >  0.98
|   |   |   |   |   |   |--- title_title_jac_dlm_dc0_dlm_dc0 <= 0.28
|   |   |   |   |   |   |   |--- class: 0.0
|   |   |   |   |   |   |--- title_title_jac_dlm_dc0_dlm_dc0 >  0.28
|   |   |   |   |   |   |   |--- manufacturer_manufacturer_lev_dist <= 20.00
|   |   |   |   |   |   |   |   |--- class: 0.0
|   |   |   |   |   |   |   |--- manufacturer_manufacturer_lev_dist >  20.00
|   |   |   |   |   |   |   |   |--- class: 1.0
|   |   |   |   |--- manufacturer_manufacturer_jac_qgm_3_qgm_3 >  0.11
|   |   |   |   |   |--- title_title_dice_dlm_dc0_dlm_dc0 <= 0.48
|   |   |   |   |   |   |--- manufacturer_manufacturer_dice_qgm_3_qgm_3 <= 0.45
|   |   |   |   |   |   |   |--- class: 0.0
|   |   |   |   |   |   |--- manufacturer_manufacturer_dice_qgm_3_qgm_3 >  0.45
|   |   |   |   |   |   |   |--- manufacturer_manufacturer_lev_dist <= 9.50
|   |   |   |   |   |   |   |   |--- price_price_anm <= 0.74
|   |   |   |   |   |   |   |   |   |--- title_title_dice_dlm_dc0_dlm_dc0 <= 0.36
|   |   |   |   |   |   |   |   |   |   |--- class: 0.0
|   |   |   |   |   |   |   |   |   |--- title_title_dice_dlm_dc0_dlm_dc0 >  0.36
|   |   |   |   |   |   |   |   |   |   |--- manufacturer_manufacturer_cos_qgm_3_qgm_3 <= 0.57
|   |   |   |   |   |   |   |   |   |   |   |--- class: 1.0
|   |   |   |   |   |   |   |   |   |   |--- manufacturer_manufacturer_cos_qgm_3_qgm_3 >  0.57
|   |   |   |   |   |   |   |   |   |   |   |--- truncated branch of depth 13
|   |   |   |   |   |   |   |   |--- price_price_anm >  0.74
|   |   |   |   |   |   |   |   |   |--- manufacturer_manufacturer_cos_qgm_3_qgm_3 <= 0.55
|   |   |   |   |   |   |   |   |   |   |--- title_title_dice_dlm_dc0_dlm_dc0 <= 0.34
|   |   |   |   |   |   |   |   |   |   |   |--- class: 1.0
|   |   |   |   |   |   |   |   |   |   |--- title_title_dice_dlm_dc0_dlm_dc0 >  0.34
|   |   |   |   |   |   |   |   |   |   |   |--- class: 0.0
|   |   |   |   |   |   |   |   |   |--- manufacturer_manufacturer_cos_qgm_3_qgm_3 >  0.55
|   |   |   |   |   |   |   |   |   |   |--- price_price_lev_dist <= 1.50
|   |   |   |   |   |   |   |   |   |   |   |--- truncated branch of depth 12
|   |   |   |   |   |   |   |   |   |   |--- price_price_lev_dist >  1.50
|   |   |   |   |   |   |   |   |   |   |   |--- truncated branch of depth 20
|   |   |   |   |   |   |   |--- manufacturer_manufacturer_lev_dist >  9.50
|   |   |   |   |   |   |   |   |--- class: 0.0
|   |   |   |   |   |--- title_title_dice_dlm_dc0_dlm_dc0 >  0.48
|   |   |   |   |   |   |--- title_title_overlap_dlm_dc0_dlm_dc0 <= 3.50
|   |   |   |   |   |   |   |--- manufacturer_manufacturer_jac_qgm_3_qgm_3 <= 0.24
|   |   |   |   |   |   |   |   |--- class: 0.0
|   |   |   |   |   |   |   |--- manufacturer_manufacturer_jac_qgm_3_qgm_3 >  0.24
|   |   |   |   |   |   |   |   |--- title_title_cos_dlm_dc0_dlm_dc0 <= 0.57
|   |   |   |   |   |   |   |   |   |--- title_title_overlap_dlm_dc0_dlm_dc0 <= 2.50
|   |   |   |   |   |   |   |   |   |   |--- title_title_cos_dlm_dc0_dlm_dc0 <= 0.51
|   |   |   |   |   |   |   |   |   |   |   |--- truncated branch of depth 10
|   |   |   |   |   |   |   |   |   |   |--- title_title_cos_dlm_dc0_dlm_dc0 >  0.51
|   |   |   |   |   |   |   |   |   |   |   |--- truncated branch of depth 6
|   |   |   |   |   |   |   |   |   |--- title_title_overlap_dlm_dc0_dlm_dc0 >  2.50
|   |   |   |   |   |   |   |   |   |   |--- title_title_dice_dlm_dc0_dlm_dc0 <= 0.52
|   |   |   |   |   |   |   |   |   |   |   |--- truncated branch of depth 11
|   |   |   |   |   |   |   |   |   |   |--- title_title_dice_dlm_dc0_dlm_dc0 >  0.52
|   |   |   |   |   |   |   |   |   |   |   |--- truncated branch of depth 8
|   |   |   |   |   |   |   |   |--- title_title_cos_dlm_dc0_dlm_dc0 >  0.57
|   |   |   |   |   |   |   |   |   |--- price_price_anm <= 0.58
|   |   |   |   |   |   |   |   |   |   |--- class: 0.0
|   |   |   |   |   |   |   |   |   |--- price_price_anm >  0.58
|   |   |   |   |   |   |   |   |   |   |--- price_price_lev_dist <= 0.50
|   |   |   |   |   |   |   |   |   |   |   |--- truncated branch of depth 6
|   |   |   |   |   |   |   |   |   |   |--- price_price_lev_dist >  0.50
|   |   |   |   |   |   |   |   |   |   |   |--- truncated branch of depth 13
|   |   |   |   |   |   |--- title_title_overlap_dlm_dc0_dlm_dc0 >  3.50
|   |   |   |   |   |   |   |--- manufacturer_manufacturer_lev_dist <= inf
|   |   |   |   |   |   |   |   |--- title_title_dice_dlm_dc0_dlm_dc0 <= 0.57
|   |   |   |   |   |   |   |   |   |--- class: 0.0
|   |   |   |   |   |   |   |   |--- title_title_dice_dlm_dc0_dlm_dc0 >  0.57
|   |   |   |   |   |   |   |   |   |--- class: 1.0
|   |   |   |   |   |   |   |--- manufacturer_manufacturer_lev_dist >  inf
|   |   |   |   |   |   |   |   |--- price_price_lev_dist <= 0.50
|   |   |   |   |   |   |   |   |   |--- title_title_cos_dlm_dc0_dlm_dc0 <= 0.63
|   |   |   |   |   |   |   |   |   |   |--- title_title_cos_dlm_dc0_dlm_dc0 <= 0.59
|   |   |   |   |   |   |   |   |   |   |   |--- truncated branch of depth 2
|   |   |   |   |   |   |   |   |   |   |--- title_title_cos_dlm_dc0_dlm_dc0 >  0.59
|   |   |   |   |   |   |   |   |   |   |   |--- class: 1.0
|   |   |   |   |   |   |   |   |   |--- title_title_cos_dlm_dc0_dlm_dc0 >  0.63
|   |   |   |   |   |   |   |   |   |   |--- title_title_cos_dlm_dc0_dlm_dc0 <= 0.64
|   |   |   |   |   |   |   |   |   |   |   |--- truncated branch of depth 2
|   |   |   |   |   |   |   |   |   |   |--- title_title_cos_dlm_dc0_dlm_dc0 >  0.64
|   |   |   |   |   |   |   |   |   |   |   |--- truncated branch of depth 7
|   |   |   |   |   |   |   |   |--- price_price_lev_dist >  0.50
|   |   |   |   |   |   |   |   |   |--- title_title_dice_dlm_dc0_dlm_dc0 <= 0.65
|   |   |   |   |   |   |   |   |   |   |--- title_title_dice_dlm_dc0_dlm_dc0 <= 0.63
|   |   |   |   |   |   |   |   |   |   |   |--- truncated branch of depth 18
|   |   |   |   |   |   |   |   |   |   |--- title_title_dice_dlm_dc0_dlm_dc0 >  0.63
|   |   |   |   |   |   |   |   |   |   |   |--- class: 0.0
|   |   |   |   |   |   |   |   |   |--- title_title_dice_dlm_dc0_dlm_dc0 >  0.65
|   |   |   |   |   |   |   |   |   |   |--- title_title_cos_dlm_dc0_dlm_dc0 <= 0.67
|   |   |   |   |   |   |   |   |   |   |   |--- truncated branch of depth 7
|   |   |   |   |   |   |   |   |   |   |--- title_title_cos_dlm_dc0_dlm_dc0 >  0.67
|   |   |   |   |   |   |   |   |   |   |   |--- truncated branch of depth 16
|   |   |   |--- price_price_lev_dist >  3.50
|   |   |   |   |--- title_title_cos_dlm_dc0_dlm_dc0 <= 0.41
|   |   |   |   |   |--- manufacturer_manufacturer_dice_qgm_3_qgm_3 <= inf
|   |   |   |   |   |   |--- class: 0.0
|   |   |   |   |   |--- manufacturer_manufacturer_dice_qgm_3_qgm_3 >  inf
|   |   |   |   |   |   |--- price_price_anm <= 0.59
|   |   |   |   |   |   |   |--- title_title_dice_dlm_dc0_dlm_dc0 <= 0.39
|   |   |   |   |   |   |   |   |--- title_title_dice_dlm_dc0_dlm_dc0 <= 0.37
|   |   |   |   |   |   |   |   |   |--- price_price_lev_dist <= 5.50
|   |   |   |   |   |   |   |   |   |   |--- title_title_dice_dlm_dc0_dlm_dc0 <= 0.36
|   |   |   |   |   |   |   |   |   |   |   |--- truncated branch of depth 3
|   |   |   |   |   |   |   |   |   |   |--- title_title_dice_dlm_dc0_dlm_dc0 >  0.36
|   |   |   |   |   |   |   |   |   |   |   |--- truncated branch of depth 2
|   |   |   |   |   |   |   |   |   |--- price_price_lev_dist >  5.50
|   |   |   |   |   |   |   |   |   |   |--- title_title_jac_dlm_dc0_dlm_dc0 <= 0.21
|   |   |   |   |   |   |   |   |   |   |   |--- truncated branch of depth 3
|   |   |   |   |   |   |   |   |   |   |--- title_title_jac_dlm_dc0_dlm_dc0 >  0.21
|   |   |   |   |   |   |   |   |   |   |   |--- class: 0.0
|   |   |   |   |   |   |   |   |--- title_title_dice_dlm_dc0_dlm_dc0 >  0.37
|   |   |   |   |   |   |   |   |   |--- class: 0.0
|   |   |   |   |   |   |   |--- title_title_dice_dlm_dc0_dlm_dc0 >  0.39
|   |   |   |   |   |   |   |   |--- title_title_overlap_dlm_dc0_dlm_dc0 <= 2.50
|   |   |   |   |   |   |   |   |   |--- class: 1.0
|   |   |   |   |   |   |   |   |--- title_title_overlap_dlm_dc0_dlm_dc0 >  2.50
|   |   |   |   |   |   |   |   |   |--- class: 0.0
|   |   |   |   |   |   |--- price_price_anm >  0.59
|   |   |   |   |   |   |   |--- title_title_cos_dlm_dc0_dlm_dc0 <= 0.36
|   |   |   |   |   |   |   |   |--- title_title_jac_dlm_dc0_dlm_dc0 <= 0.20
|   |   |   |   |   |   |   |   |   |--- price_price_anm <= 0.81
|   |   |   |   |   |   |   |   |   |   |--- class: 0.0
|   |   |   |   |   |   |   |   |   |--- price_price_anm >  0.81
|   |   |   |   |   |   |   |   |   |   |--- price_price_lev_dist <= 4.50
|   |   |   |   |   |   |   |   |   |   |   |--- truncated branch of depth 3
|   |   |   |   |   |   |   |   |   |   |--- price_price_lev_dist >  4.50
|   |   |   |   |   |   |   |   |   |   |   |--- truncated branch of depth 4
|   |   |   |   |   |   |   |   |--- title_title_jac_dlm_dc0_dlm_dc0 >  0.20
|   |   |   |   |   |   |   |   |   |--- class: 0.0
|   |   |   |   |   |   |   |--- title_title_cos_dlm_dc0_dlm_dc0 >  0.36
|   |   |   |   |   |   |   |   |--- price_price_anm <= 0.73
|   |   |   |   |   |   |   |   |   |--- price_price_lev_dist <= 4.50
|   |   |   |   |   |   |   |   |   |   |--- title_title_jac_dlm_dc0_dlm_dc0 <= 0.23
|   |   |   |   |   |   |   |   |   |   |   |--- truncated branch of depth 7
|   |   |   |   |   |   |   |   |   |   |--- title_title_jac_dlm_dc0_dlm_dc0 >  0.23
|   |   |   |   |   |   |   |   |   |   |   |--- truncated branch of depth 5
|   |   |   |   |   |   |   |   |   |--- price_price_lev_dist >  4.50
|   |   |   |   |   |   |   |   |   |   |--- class: 0.0
|   |   |   |   |   |   |   |   |--- price_price_anm >  0.73
|   |   |   |   |   |   |   |   |   |--- class: 0.0
|   |   |   |   |--- title_title_cos_dlm_dc0_dlm_dc0 >  0.41
|   |   |   |   |   |--- title_title_dice_dlm_dc0_dlm_dc0 <= 0.64
|   |   |   |   |   |   |--- manufacturer_manufacturer_lev_dist <= 15.50
|   |   |   |   |   |   |   |--- title_title_cos_dlm_dc0_dlm_dc0 <= 0.51
|   |   |   |   |   |   |   |   |--- title_title_dice_dlm_dc0_dlm_dc0 <= 0.39
|   |   |   |   |   |   |   |   |   |--- title_title_jac_dlm_dc0_dlm_dc0 <= 0.22
|   |   |   |   |   |   |   |   |   |   |--- class: 0.0
|   |   |   |   |   |   |   |   |   |--- title_title_jac_dlm_dc0_dlm_dc0 >  0.22
|   |   |   |   |   |   |   |   |   |   |--- title_title_jac_dlm_dc0_dlm_dc0 <= 0.23
|   |   |   |   |   |   |   |   |   |   |   |--- truncated branch of depth 3
|   |   |   |   |   |   |   |   |   |   |--- title_title_jac_dlm_dc0_dlm_dc0 >  0.23
|   |   |   |   |   |   |   |   |   |   |   |--- class: 1.0
|   |   |   |   |   |   |   |   |--- title_title_dice_dlm_dc0_dlm_dc0 >  0.39
|   |   |   |   |   |   |   |   |   |--- title_title_overlap_dlm_dc0_dlm_dc0 <= 5.50
|   |   |   |   |   |   |   |   |   |   |--- manufacturer_manufacturer_jac_qgm_3_qgm_3 <= 0.40
|   |   |   |   |   |   |   |   |   |   |   |--- class: 0.0
|   |   |   |   |   |   |   |   |   |   |--- manufacturer_manufacturer_jac_qgm_3_qgm_3 >  0.40
|   |   |   |   |   |   |   |   |   |   |   |--- truncated branch of depth 18
|   |   |   |   |   |   |   |   |   |--- title_title_overlap_dlm_dc0_dlm_dc0 >  5.50
|   |   |   |   |   |   |   |   |   |   |--- class: 0.0
|   |   |   |   |   |   |   |--- title_title_cos_dlm_dc0_dlm_dc0 >  0.51
|   |   |   |   |   |   |   |   |--- title_title_jac_dlm_dc0_dlm_dc0 <= 0.36
|   |   |   |   |   |   |   |   |   |--- price_price_anm <= 0.92
|   |   |   |   |   |   |   |   |   |   |--- price_price_lev_dist <= 5.50
|   |   |   |   |   |   |   |   |   |   |   |--- truncated branch of depth 11
|   |   |   |   |   |   |   |   |   |   |--- price_price_lev_dist >  5.50
|   |   |   |   |   |   |   |   |   |   |   |--- class: 0.0
|   |   |   |   |   |   |   |   |   |--- price_price_anm >  0.92
|   |   |   |   |   |   |   |   |   |   |--- title_title_dice_dlm_dc0_dlm_dc0 <= 0.46
|   |   |   |   |   |   |   |   |   |   |   |--- class: 1.0
|   |   |   |   |   |   |   |   |   |   |--- title_title_dice_dlm_dc0_dlm_dc0 >  0.46
|   |   |   |   |   |   |   |   |   |   |   |--- class: 0.0
|   |   |   |   |   |   |   |   |--- title_title_jac_dlm_dc0_dlm_dc0 >  0.36
|   |   |   |   |   |   |   |   |   |--- price_price_anm <= 0.60
|   |   |   |   |   |   |   |   |   |   |--- manufacturer_manufacturer_lev_dist <= inf
|   |   |   |   |   |   |   |   |   |   |   |--- class: 0.0
|   |   |   |   |   |   |   |   |   |   |--- manufacturer_manufacturer_lev_dist >  inf
|   |   |   |   |   |   |   |   |   |   |   |--- truncated branch of depth 13
|   |   |   |   |   |   |   |   |   |--- price_price_anm >  0.60
|   |   |   |   |   |   |   |   |   |   |--- title_title_overlap_dlm_dc0_dlm_dc0 <= 10.50
|   |   |   |   |   |   |   |   |   |   |   |--- truncated branch of depth 10
|   |   |   |   |   |   |   |   |   |   |--- title_title_overlap_dlm_dc0_dlm_dc0 >  10.50
|   |   |   |   |   |   |   |   |   |   |   |--- class: 1.0
|   |   |   |   |   |   |--- manufacturer_manufacturer_lev_dist >  15.50
|   |   |   |   |   |   |   |--- manufacturer_manufacturer_lev_dist <= 18.00
|   |   |   |   |   |   |   |   |--- class: 1.0
|   |   |   |   |   |   |   |--- manufacturer_manufacturer_lev_dist >  18.00
|   |   |   |   |   |   |   |   |--- title_title_dice_dlm_dc0_dlm_dc0 <= 0.46
|   |   |   |   |   |   |   |   |   |--- class: 1.0
|   |   |   |   |   |   |   |   |--- title_title_dice_dlm_dc0_dlm_dc0 >  0.46
|   |   |   |   |   |   |   |   |   |--- class: 0.0
|   |   |   |   |   |--- title_title_dice_dlm_dc0_dlm_dc0 >  0.64
|   |   |   |   |   |   |--- manufacturer_manufacturer_overlap_qgm_3_qgm_3 <= 1.50
|   |   |   |   |   |   |   |--- class: 0.0
|   |   |   |   |   |   |--- manufacturer_manufacturer_overlap_qgm_3_qgm_3 >  1.50
|   |   |   |   |   |   |   |--- title_title_dice_dlm_dc0_dlm_dc0 <= 0.77
|   |   |   |   |   |   |   |   |--- price_price_anm <= 0.96
|   |   |   |   |   |   |   |   |   |--- title_title_overlap_dlm_dc0_dlm_dc0 <= 8.50
|   |   |   |   |   |   |   |   |   |   |--- title_title_jac_dlm_dc0_dlm_dc0 <= 0.59
|   |   |   |   |   |   |   |   |   |   |   |--- truncated branch of depth 19
|   |   |   |   |   |   |   |   |   |   |--- title_title_jac_dlm_dc0_dlm_dc0 >  0.59
|   |   |   |   |   |   |   |   |   |   |   |--- truncated branch of depth 5
|   |   |   |   |   |   |   |   |   |--- title_title_overlap_dlm_dc0_dlm_dc0 >  8.50
|   |   |   |   |   |   |   |   |   |   |--- class: 0.0
|   |   |   |   |   |   |   |   |--- price_price_anm >  0.96
|   |   |   |   |   |   |   |   |   |--- title_title_dice_dlm_dc0_dlm_dc0 <= 0.69
|   |   |   |   |   |   |   |   |   |   |--- price_price_anm <= 0.97
|   |   |   |   |   |   |   |   |   |   |   |--- truncated branch of depth 2
|   |   |   |   |   |   |   |   |   |   |--- price_price_anm >  0.97
|   |   |   |   |   |   |   |   |   |   |   |--- class: 0.0
|   |   |   |   |   |   |   |   |   |--- title_title_dice_dlm_dc0_dlm_dc0 >  0.69
|   |   |   |   |   |   |   |   |   |   |--- title_title_dice_dlm_dc0_dlm_dc0 <= 0.74
|   |   |   |   |   |   |   |   |   |   |   |--- truncated branch of depth 3
|   |   |   |   |   |   |   |   |   |   |--- title_title_dice_dlm_dc0_dlm_dc0 >  0.74
|   |   |   |   |   |   |   |   |   |   |   |--- class: 1.0
|   |   |   |   |   |   |   |--- title_title_dice_dlm_dc0_dlm_dc0 >  0.77
|   |   |   |   |   |   |   |   |--- price_price_lev_dist <= 5.50
|   |   |   |   |   |   |   |   |   |--- price_price_lev_dist <= inf
|   |   |   |   |   |   |   |   |   |   |--- title_title_jac_dlm_dc0_dlm_dc0 <= 0.72
|   |   |   |   |   |   |   |   |   |   |   |--- truncated branch of depth 10
|   |   |   |   |   |   |   |   |   |   |--- title_title_jac_dlm_dc0_dlm_dc0 >  0.72
|   |   |   |   |   |   |   |   |   |   |   |--- truncated branch of depth 8
|   |   |   |   |   |   |   |   |   |--- price_price_lev_dist >  inf
|   |   |   |   |   |   |   |   |   |   |--- title_title_cos_dlm_dc0_dlm_dc0 <= 0.77
|   |   |   |   |   |   |   |   |   |   |   |--- class: 0.0
|   |   |   |   |   |   |   |   |   |   |--- title_title_cos_dlm_dc0_dlm_dc0 >  0.77
|   |   |   |   |   |   |   |   |   |   |   |--- truncated branch of depth 7
|   |   |   |   |   |   |   |   |--- price_price_lev_dist >  5.50
|   |   |   |   |   |   |   |   |   |--- title_title_cos_dlm_dc0_dlm_dc0 <= 0.82
|   |   |   |   |   |   |   |   |   |   |--- class: 0.0
|   |   |   |   |   |   |   |   |   |--- title_title_cos_dlm_dc0_dlm_dc0 >  0.82
|   |   |   |   |   |   |   |   |   |   |--- class: 1.0
|--- manufacturer_manufacturer_jac_qgm_3_qgm_3 >  0.57
|   |--- title_title_overlap_dlm_dc0_dlm_dc0 <= 3.50
|   |   |--- title_title_overlap_dlm_dc0_dlm_dc0 <= 0.50
|   |   |   |--- class: 0.0
|   |   |--- title_title_overlap_dlm_dc0_dlm_dc0 >  0.50
|   |   |   |--- title_title_jac_dlm_dc0_dlm_dc0 <= 0.32
|   |   |   |   |--- title_title_dice_dlm_dc0_dlm_dc0 <= 0.19
|   |   |   |   |   |--- class: 0.0
|   |   |   |   |--- title_title_dice_dlm_dc0_dlm_dc0 >  0.19
|   |   |   |   |   |--- price_price_anm <= 0.63
|   |   |   |   |   |   |--- manufacturer_manufacturer_overlap_qgm_3_qgm_3 <= 19.50
|   |   |   |   |   |   |   |--- class: 0.0
|   |   |   |   |   |   |--- manufacturer_manufacturer_overlap_qgm_3_qgm_3 >  19.50
|   |   |   |   |   |   |   |--- title_title_jac_dlm_dc0_dlm_dc0 <= 0.24
|   |   |   |   |   |   |   |   |--- manufacturer_manufacturer_jac_qgm_3_qgm_3 <= 0.58
|   |   |   |   |   |   |   |   |   |--- class: 1.0
|   |   |   |   |   |   |   |   |--- manufacturer_manufacturer_jac_qgm_3_qgm_3 >  0.58
|   |   |   |   |   |   |   |   |   |--- manufacturer_manufacturer_overlap_qgm_3_qgm_3 <= 21.00
|   |   |   |   |   |   |   |   |   |   |--- class: 1.0
|   |   |   |   |   |   |   |   |   |--- manufacturer_manufacturer_overlap_qgm_3_qgm_3 >  21.00
|   |   |   |   |   |   |   |   |   |   |--- class: 0.0
|   |   |   |   |   |   |   |--- title_title_jac_dlm_dc0_dlm_dc0 >  0.24
|   |   |   |   |   |   |   |   |--- class: 0.0
|   |   |   |   |   |--- price_price_anm >  0.63
|   |   |   |   |   |   |--- manufacturer_manufacturer_overlap_qgm_3_qgm_3 <= 10.00
|   |   |   |   |   |   |   |--- title_title_jac_dlm_dc0_dlm_dc0 <= 0.26
|   |   |   |   |   |   |   |   |--- price_price_anm <= 0.68
|   |   |   |   |   |   |   |   |   |--- manufacturer_manufacturer_overlap_qgm_3_qgm_3 <= 5.00
|   |   |   |   |   |   |   |   |   |   |--- title_title_cos_dlm_dc0_dlm_dc0 <= 0.42
|   |   |   |   |   |   |   |   |   |   |   |--- class: 1.0
|   |   |   |   |   |   |   |   |   |   |--- title_title_cos_dlm_dc0_dlm_dc0 >  0.42
|   |   |   |   |   |   |   |   |   |   |   |--- class: 0.0
|   |   |   |   |   |   |   |   |   |--- manufacturer_manufacturer_overlap_qgm_3_qgm_3 >  5.00
|   |   |   |   |   |   |   |   |   |   |--- class: 0.0
|   |   |   |   |   |   |   |   |--- price_price_anm >  0.68
|   |   |   |   |   |   |   |   |   |--- title_title_jac_dlm_dc0_dlm_dc0 <= 0.24
|   |   |   |   |   |   |   |   |   |   |--- price_price_lev_dist <= 2.50
|   |   |   |   |   |   |   |   |   |   |   |--- class: 0.0
|   |   |   |   |   |   |   |   |   |   |--- price_price_lev_dist >  2.50
|   |   |   |   |   |   |   |   |   |   |   |--- truncated branch of depth 2
|   |   |   |   |   |   |   |   |   |--- title_title_jac_dlm_dc0_dlm_dc0 >  0.24
|   |   |   |   |   |   |   |   |   |   |--- class: 1.0
|   |   |   |   |   |   |   |--- title_title_jac_dlm_dc0_dlm_dc0 >  0.26
|   |   |   |   |   |   |   |   |--- class: 0.0
|   |   |   |   |   |   |--- manufacturer_manufacturer_overlap_qgm_3_qgm_3 >  10.00
|   |   |   |   |   |   |   |--- manufacturer_manufacturer_jac_qgm_3_qgm_3 <= 0.91
|   |   |   |   |   |   |   |   |--- class: 0.0
|   |   |   |   |   |   |   |--- manufacturer_manufacturer_jac_qgm_3_qgm_3 >  0.91
|   |   |   |   |   |   |   |   |--- manufacturer_manufacturer_overlap_qgm_3_qgm_3 <= 14.50
|   |   |   |   |   |   |   |   |   |--- price_price_anm <= 0.80
|   |   |   |   |   |   |   |   |   |   |--- class: 0.0
|   |   |   |   |   |   |   |   |   |--- price_price_anm >  0.80
|   |   |   |   |   |   |   |   |   |   |--- title_title_dice_dlm_dc0_dlm_dc0 <= 0.42
|   |   |   |   |   |   |   |   |   |   |   |--- truncated branch of depth 6
|   |   |   |   |   |   |   |   |   |   |--- title_title_dice_dlm_dc0_dlm_dc0 >  0.42
|   |   |   |   |   |   |   |   |   |   |   |--- class: 0.0
|   |   |   |   |   |   |   |   |--- manufacturer_manufacturer_overlap_qgm_3_qgm_3 >  14.50
|   |   |   |   |   |   |   |   |   |--- title_title_dice_dlm_dc0_dlm_dc0 <= 0.26
|   |   |   |   |   |   |   |   |   |   |--- class: 0.0
|   |   |   |   |   |   |   |   |   |--- title_title_dice_dlm_dc0_dlm_dc0 >  0.26
|   |   |   |   |   |   |   |   |   |   |--- price_price_anm <= inf
|   |   |   |   |   |   |   |   |   |   |   |--- truncated branch of depth 4
|   |   |   |   |   |   |   |   |   |   |--- price_price_anm >  inf
|   |   |   |   |   |   |   |   |   |   |   |--- truncated branch of depth 2
|   |   |   |--- title_title_jac_dlm_dc0_dlm_dc0 >  0.32
|   |   |   |   |--- title_title_cos_dlm_dc0_dlm_dc0 <= 0.56
|   |   |   |   |   |--- manufacturer_manufacturer_jac_qgm_3_qgm_3 <= 0.78
|   |   |   |   |   |   |--- class: 0.0
|   |   |   |   |   |--- manufacturer_manufacturer_jac_qgm_3_qgm_3 >  0.78
|   |   |   |   |   |   |--- title_title_overlap_dlm_dc0_dlm_dc0 <= 2.50
|   |   |   |   |   |   |   |--- class: 0.0
|   |   |   |   |   |   |--- title_title_overlap_dlm_dc0_dlm_dc0 >  2.50
|   |   |   |   |   |   |   |--- manufacturer_manufacturer_cos_qgm_3_qgm_3 <= 0.90
|   |   |   |   |   |   |   |   |--- title_title_cos_dlm_dc0_dlm_dc0 <= 0.53
|   |   |   |   |   |   |   |   |   |--- class: 1.0
|   |   |   |   |   |   |   |   |--- title_title_cos_dlm_dc0_dlm_dc0 >  0.53
|   |   |   |   |   |   |   |   |   |--- class: 0.0
|   |   |   |   |   |   |   |--- manufacturer_manufacturer_cos_qgm_3_qgm_3 >  0.90
|   |   |   |   |   |   |   |   |--- price_price_lev_dist <= 4.00
|   |   |   |   |   |   |   |   |   |--- price_price_exm <= 0.50
|   |   |   |   |   |   |   |   |   |   |--- manufacturer_manufacturer_overlap_qgm_3_qgm_3 <= 11.50
|   |   |   |   |   |   |   |   |   |   |   |--- class: 0.0
|   |   |   |   |   |   |   |   |   |   |--- manufacturer_manufacturer_overlap_qgm_3_qgm_3 >  11.50
|   |   |   |   |   |   |   |   |   |   |   |--- class: 1.0
|   |   |   |   |   |   |   |   |   |--- price_price_exm >  0.50
|   |   |   |   |   |   |   |   |   |   |--- class: 1.0
|   |   |   |   |   |   |   |   |--- price_price_lev_dist >  4.00
|   |   |   |   |   |   |   |   |   |--- manufacturer_manufacturer_exm <= 0.50
|   |   |   |   |   |   |   |   |   |   |--- class: 0.0
|   |   |   |   |   |   |   |   |   |--- manufacturer_manufacturer_exm >  0.50
|   |   |   |   |   |   |   |   |   |   |--- title_title_jac_dlm_dc0_dlm_dc0 <= 0.35
|   |   |   |   |   |   |   |   |   |   |   |--- truncated branch of depth 2
|   |   |   |   |   |   |   |   |   |   |--- title_title_jac_dlm_dc0_dlm_dc0 >  0.35
|   |   |   |   |   |   |   |   |   |   |   |--- class: 1.0
|   |   |   |   |--- title_title_cos_dlm_dc0_dlm_dc0 >  0.56
|   |   |   |   |   |--- price_price_anm <= 0.16
|   |   |   |   |   |   |--- class: 0.0
|   |   |   |   |   |--- price_price_anm >  0.16
|   |   |   |   |   |   |--- manufacturer_manufacturer_cos_qgm_3_qgm_3 <= 0.86
|   |   |   |   |   |   |   |--- class: 1.0
|   |   |   |   |   |   |--- manufacturer_manufacturer_cos_qgm_3_qgm_3 >  0.86
|   |   |   |   |   |   |   |--- price_price_anm <= 0.75
|   |   |   |   |   |   |   |   |--- title_title_jac_dlm_dc0_dlm_dc0 <= 0.35
|   |   |   |   |   |   |   |   |   |--- class: 1.0
|   |   |   |   |   |   |   |   |--- title_title_jac_dlm_dc0_dlm_dc0 >  0.35
|   |   |   |   |   |   |   |   |   |--- title_title_dice_dlm_dc0_dlm_dc0 <= 0.56
|   |   |   |   |   |   |   |   |   |   |--- class: 0.0
|   |   |   |   |   |   |   |   |   |--- title_title_dice_dlm_dc0_dlm_dc0 >  0.56
|   |   |   |   |   |   |   |   |   |   |--- price_price_lev_dist <= 1.50
|   |   |   |   |   |   |   |   |   |   |   |--- class: 0.0
|   |   |   |   |   |   |   |   |   |   |--- price_price_lev_dist >  1.50
|   |   |   |   |   |   |   |   |   |   |   |--- truncated branch of depth 3
|   |   |   |   |   |   |   |--- price_price_anm >  0.75
|   |   |   |   |   |   |   |   |--- price_price_exm <= 0.50
|   |   |   |   |   |   |   |   |   |--- class: 1.0
|   |   |   |   |   |   |   |   |--- price_price_exm >  0.50
|   |   |   |   |   |   |   |   |   |--- manufacturer_manufacturer_overlap_qgm_3_qgm_3 <= 16.50
|   |   |   |   |   |   |   |   |   |   |--- class: 0.0
|   |   |   |   |   |   |   |   |   |--- manufacturer_manufacturer_overlap_qgm_3_qgm_3 >  16.50
|   |   |   |   |   |   |   |   |   |   |--- class: 1.0
|   |--- title_title_overlap_dlm_dc0_dlm_dc0 >  3.50
|   |   |--- title_title_dice_dlm_dc0_dlm_dc0 <= 0.63
|   |   |   |--- title_title_dice_dlm_dc0_dlm_dc0 <= 0.62
|   |   |   |   |--- price_price_anm <= 0.36
|   |   |   |   |   |--- class: 0.0
|   |   |   |   |--- price_price_anm >  0.36
|   |   |   |   |   |--- manufacturer_manufacturer_lev_dist <= 2.50
|   |   |   |   |   |   |--- manufacturer_manufacturer_overlap_qgm_3_qgm_3 <= 14.50
|   |   |   |   |   |   |   |--- title_title_jac_dlm_dc0_dlm_dc0 <= 0.34
|   |   |   |   |   |   |   |   |--- class: 0.0
|   |   |   |   |   |   |   |--- title_title_jac_dlm_dc0_dlm_dc0 >  0.34
|   |   |   |   |   |   |   |   |--- manufacturer_manufacturer_overlap_qgm_3_qgm_3 <= 8.00
|   |   |   |   |   |   |   |   |   |--- title_title_overlap_dlm_dc0_dlm_dc0 <= 6.50
|   |   |   |   |   |   |   |   |   |   |--- class: 1.0
|   |   |   |   |   |   |   |   |   |--- title_title_overlap_dlm_dc0_dlm_dc0 >  6.50
|   |   |   |   |   |   |   |   |   |   |--- class: 0.0
|   |   |   |   |   |   |   |   |--- manufacturer_manufacturer_overlap_qgm_3_qgm_3 >  8.00
|   |   |   |   |   |   |   |   |   |--- title_title_dice_dlm_dc0_dlm_dc0 <= 0.60
|   |   |   |   |   |   |   |   |   |   |--- title_title_dice_dlm_dc0_dlm_dc0 <= 0.53
|   |   |   |   |   |   |   |   |   |   |   |--- class: 1.0
|   |   |   |   |   |   |   |   |   |   |--- title_title_dice_dlm_dc0_dlm_dc0 >  0.53
|   |   |   |   |   |   |   |   |   |   |   |--- class: 0.0
|   |   |   |   |   |   |   |   |   |--- title_title_dice_dlm_dc0_dlm_dc0 >  0.60
|   |   |   |   |   |   |   |   |   |   |--- price_price_anm <= 0.60
|   |   |   |   |   |   |   |   |   |   |   |--- class: 0.0
|   |   |   |   |   |   |   |   |   |   |--- price_price_anm >  0.60
|   |   |   |   |   |   |   |   |   |   |   |--- truncated branch of depth 4
|   |   |   |   |   |   |--- manufacturer_manufacturer_overlap_qgm_3_qgm_3 >  14.50
|   |   |   |   |   |   |   |--- price_price_anm <= 0.49
|   |   |   |   |   |   |   |   |--- price_price_anm <= 0.43
|   |   |   |   |   |   |   |   |   |--- class: 1.0
|   |   |   |   |   |   |   |   |--- price_price_anm >  0.43
|   |   |   |   |   |   |   |   |   |--- class: 0.0
|   |   |   |   |   |   |   |--- price_price_anm >  0.49
|   |   |   |   |   |   |   |   |--- title_title_jac_dlm_dc0_dlm_dc0 <= 0.31
|   |   |   |   |   |   |   |   |   |--- title_title_cos_dlm_dc0_dlm_dc0 <= 0.50
|   |   |   |   |   |   |   |   |   |   |--- class: 1.0
|   |   |   |   |   |   |   |   |   |--- title_title_cos_dlm_dc0_dlm_dc0 >  0.50
|   |   |   |   |   |   |   |   |   |   |--- class: 0.0
|   |   |   |   |   |   |   |   |--- title_title_jac_dlm_dc0_dlm_dc0 >  0.31
|   |   |   |   |   |   |   |   |   |--- class: 1.0
|   |   |   |   |   |--- manufacturer_manufacturer_lev_dist >  2.50
|   |   |   |   |   |   |--- class: 0.0
|   |   |   |--- title_title_dice_dlm_dc0_dlm_dc0 >  0.62
|   |   |   |   |--- class: 0.0
|   |   |--- title_title_dice_dlm_dc0_dlm_dc0 >  0.63
|   |   |   |--- price_price_lev_dist <= 2.50
|   |   |   |   |--- price_price_anm <= 0.92
|   |   |   |   |   |--- title_title_cos_dlm_dc0_dlm_dc0 <= 0.69
|   |   |   |   |   |   |--- class: 0.0
|   |   |   |   |   |--- title_title_cos_dlm_dc0_dlm_dc0 >  0.69
|   |   |   |   |   |   |--- title_title_cos_dlm_dc0_dlm_dc0 <= 0.74
|   |   |   |   |   |   |   |--- price_price_anm <= 0.61
|   |   |   |   |   |   |   |   |--- class: 0.0
|   |   |   |   |   |   |   |--- price_price_anm >  0.61
|   |   |   |   |   |   |   |   |--- class: 1.0
|   |   |   |   |   |   |--- title_title_cos_dlm_dc0_dlm_dc0 >  0.74
|   |   |   |   |   |   |   |--- price_price_anm <= 0.91
|   |   |   |   |   |   |   |   |--- price_price_anm <= 0.89
|   |   |   |   |   |   |   |   |   |--- title_title_dice_dlm_dc0_dlm_dc0 <= 0.75
|   |   |   |   |   |   |   |   |   |   |--- manufacturer_manufacturer_overlap_qgm_3_qgm_3 <= 18.00
|   |   |   |   |   |   |   |   |   |   |   |--- class: 0.0
|   |   |   |   |   |   |   |   |   |   |--- manufacturer_manufacturer_overlap_qgm_3_qgm_3 >  18.00
|   |   |   |   |   |   |   |   |   |   |   |--- class: 1.0
|   |   |   |   |   |   |   |   |   |--- title_title_dice_dlm_dc0_dlm_dc0 >  0.75
|   |   |   |   |   |   |   |   |   |   |--- manufacturer_manufacturer_exm <= 0.50
|   |   |   |   |   |   |   |   |   |   |   |--- class: 1.0
|   |   |   |   |   |   |   |   |   |   |--- manufacturer_manufacturer_exm >  0.50
|   |   |   |   |   |   |   |   |   |   |   |--- truncated branch of depth 4
|   |   |   |   |   |   |   |   |--- price_price_anm >  0.89
|   |   |   |   |   |   |   |   |   |--- title_title_jac_dlm_dc0_dlm_dc0 <= 0.71
|   |   |   |   |   |   |   |   |   |   |--- price_price_anm <= 0.90
|   |   |   |   |   |   |   |   |   |   |   |--- class: 1.0
|   |   |   |   |   |   |   |   |   |   |--- price_price_anm >  0.90
|   |   |   |   |   |   |   |   |   |   |   |--- class: 1.0
|   |   |   |   |   |   |   |   |   |--- title_title_jac_dlm_dc0_dlm_dc0 >  0.71
|   |   |   |   |   |   |   |   |   |   |--- class: 1.0
|   |   |   |   |   |   |   |--- price_price_anm >  0.91
|   |   |   |   |   |   |   |   |--- class: 0.0
|   |   |   |   |--- price_price_anm >  0.92
|   |   |   |   |   |--- class: 1.0
|   |   |   |--- price_price_lev_dist >  2.50
|   |   |   |   |--- title_title_jac_dlm_dc0_dlm_dc0 <= 0.53
|   |   |   |   |   |--- price_price_anm <= 0.73
|   |   |   |   |   |   |--- title_title_cos_dlm_dc0_dlm_dc0 <= 0.69
|   |   |   |   |   |   |   |--- class: 0.0
|   |   |   |   |   |   |--- title_title_cos_dlm_dc0_dlm_dc0 >  0.69
|   |   |   |   |   |   |   |--- class: 1.0
|   |   |   |   |   |--- price_price_anm >  0.73
|   |   |   |   |   |   |--- class: 1.0
|   |   |   |   |--- title_title_jac_dlm_dc0_dlm_dc0 >  0.53
|   |   |   |   |   |--- class: 1.0

|--- title_title_overlap_dlm_dc0_dlm_dc0 <= 2.50
|   |--- title_title_jac_dlm_dc0_dlm_dc0 <= 0.17
|   |   |--- manufacturer_manufacturer_overlap_qgm_3_qgm_3 <= 12.50
|   |   |   |--- price_price_anm <= 0.84
|   |   |   |   |--- title_title_cos_dlm_dc0_dlm_dc0 <= 0.28
|   |   |   |   |   |--- title_title_cos_dlm_dc0_dlm_dc0 <= 0.18
|   |   |   |   |   |   |--- class: 0.0
|   |   |   |   |   |--- title_title_cos_dlm_dc0_dlm_dc0 >  0.18
|   |   |   |   |   |   |--- title_title_jac_dlm_dc0_dlm_dc0 <= 0.09
|   |   |   |   |   |   |   |--- title_title_cos_dlm_dc0_dlm_dc0 <= 0.18
|   |   |   |   |   |   |   |   |--- manufacturer_manufacturer_lev_dist <= inf
|   |   |   |   |   |   |   |   |   |--- class: 0.0
|   |   |   |   |   |   |   |   |--- manufacturer_manufacturer_lev_dist >  inf
|   |   |   |   |   |   |   |   |   |--- price_price_anm <= inf
|   |   |   |   |   |   |   |   |   |   |--- class: 0.0
|   |   |   |   |   |   |   |   |   |--- price_price_anm >  inf
|   |   |   |   |   |   |   |   |   |   |--- title_title_overlap_dlm_dc0_dlm_dc0 <= 1.50
|   |   |   |   |   |   |   |   |   |   |   |--- class: 0.0
|   |   |   |   |   |   |   |   |   |   |--- title_title_overlap_dlm_dc0_dlm_dc0 >  1.50
|   |   |   |   |   |   |   |   |   |   |   |--- class: 0.0
|   |   |   |   |   |   |   |--- title_title_cos_dlm_dc0_dlm_dc0 >  0.18
|   |   |   |   |   |   |   |   |--- class: 0.0
|   |   |   |   |   |   |--- title_title_jac_dlm_dc0_dlm_dc0 >  0.09
|   |   |   |   |   |   |   |--- manufacturer_manufacturer_jac_qgm_3_qgm_3 <= inf
|   |   |   |   |   |   |   |   |--- class: 0.0
|   |   |   |   |   |   |   |--- manufacturer_manufacturer_jac_qgm_3_qgm_3 >  inf
|   |   |   |   |   |   |   |   |--- title_title_cos_dlm_dc0_dlm_dc0 <= 0.19
|   |   |   |   |   |   |   |   |   |--- title_title_cos_dlm_dc0_dlm_dc0 <= 0.18
|   |   |   |   |   |   |   |   |   |   |--- class: 0.0
|   |   |   |   |   |   |   |   |   |--- title_title_cos_dlm_dc0_dlm_dc0 >  0.18
|   |   |   |   |   |   |   |   |   |   |--- price_price_anm <= inf
|   |   |   |   |   |   |   |   |   |   |   |--- class: 0.0
|   |   |   |   |   |   |   |   |   |   |--- price_price_anm >  inf
|   |   |   |   |   |   |   |   |   |   |   |--- class: 1.0
|   |   |   |   |   |   |   |   |--- title_title_cos_dlm_dc0_dlm_dc0 >  0.19
|   |   |   |   |   |   |   |   |   |--- title_title_jac_dlm_dc0_dlm_dc0 <= 0.12
|   |   |   |   |   |   |   |   |   |   |--- class: 0.0
|   |   |   |   |   |   |   |   |   |--- title_title_jac_dlm_dc0_dlm_dc0 >  0.12
|   |   |   |   |   |   |   |   |   |   |--- title_title_cos_dlm_dc0_dlm_dc0 <= 0.23
|   |   |   |   |   |   |   |   |   |   |   |--- truncated branch of depth 7
|   |   |   |   |   |   |   |   |   |   |--- title_title_cos_dlm_dc0_dlm_dc0 >  0.23
|   |   |   |   |   |   |   |   |   |   |   |--- class: 0.0
|   |   |   |   |--- title_title_cos_dlm_dc0_dlm_dc0 >  0.28
|   |   |   |   |   |--- price_price_anm <= 0.74
|   |   |   |   |   |   |--- class: 0.0
|   |   |   |   |   |--- price_price_anm >  0.74
|   |   |   |   |   |   |--- manufacturer_manufacturer_lev_dist <= 7.00
|   |   |   |   |   |   |   |--- manufacturer_manufacturer_jac_qgm_3_qgm_3 <= 0.30
|   |   |   |   |   |   |   |   |--- class: 1.0
|   |   |   |   |   |   |   |--- manufacturer_manufacturer_jac_qgm_3_qgm_3 >  0.30
|   |   |   |   |   |   |   |   |--- class: 0.0
|   |   |   |   |   |   |--- manufacturer_manufacturer_lev_dist >  7.00
|   |   |   |   |   |   |   |--- title_title_dice_dlm_dc0_dlm_dc0 <= 0.28
|   |   |   |   |   |   |   |   |--- class: 0.0
|   |   |   |   |   |   |   |--- title_title_dice_dlm_dc0_dlm_dc0 >  0.28
|   |   |   |   |   |   |   |   |--- price_price_lev_dist <= 2.50
|   |   |   |   |   |   |   |   |   |--- title_title_overlap_dlm_dc0_dlm_dc0 <= 1.50
|   |   |   |   |   |   |   |   |   |   |--- price_price_lev_dist <= 1.50
|   |   |   |   |   |   |   |   |   |   |   |--- class: 0.0
|   |   |   |   |   |   |   |   |   |   |--- price_price_lev_dist >  1.50
|   |   |   |   |   |   |   |   |   |   |   |--- truncated branch of depth 2
|   |   |   |   |   |   |   |   |   |--- title_title_overlap_dlm_dc0_dlm_dc0 >  1.50
|   |   |   |   |   |   |   |   |   |   |--- class: 0.0
|   |   |   |   |   |   |   |   |--- price_price_lev_dist >  2.50
|   |   |   |   |   |   |   |   |   |--- class: 0.0
|   |   |   |--- price_price_anm >  0.84
|   |   |   |   |--- title_title_overlap_dlm_dc0_dlm_dc0 <= 1.50
|   |   |   |   |   |--- price_price_anm <= 0.88
|   |   |   |   |   |   |--- title_title_cos_dlm_dc0_dlm_dc0 <= 0.19
|   |   |   |   |   |   |   |--- class: 0.0
|   |   |   |   |   |   |--- title_title_cos_dlm_dc0_dlm_dc0 >  0.19
|   |   |   |   |   |   |   |--- price_price_anm <= 0.88
|   |   |   |   |   |   |   |   |--- class: 0.0
|   |   |   |   |   |   |   |--- price_price_anm >  0.88
|   |   |   |   |   |   |   |   |--- class: 1.0
|   |   |   |   |   |--- price_price_anm >  0.88
|   |   |   |   |   |   |--- class: 0.0
|   |   |   |   |--- title_title_overlap_dlm_dc0_dlm_dc0 >  1.50
|   |   |   |   |   |--- title_title_cos_dlm_dc0_dlm_dc0 <= 0.31
|   |   |   |   |   |   |--- title_title_cos_dlm_dc0_dlm_dc0 <= 0.28
|   |   |   |   |   |   |   |--- price_price_anm <= 0.85
|   |   |   |   |   |   |   |   |--- class: 1.0
|   |   |   |   |   |   |   |--- price_price_anm >  0.85
|   |   |   |   |   |   |   |   |--- title_title_cos_dlm_dc0_dlm_dc0 <= 0.27
|   |   |   |   |   |   |   |   |   |--- title_title_dice_dlm_dc0_dlm_dc0 <= 0.20
|   |   |   |   |   |   |   |   |   |   |--- class: 0.0
|   |   |   |   |   |   |   |   |   |--- title_title_dice_dlm_dc0_dlm_dc0 >  0.20
|   |   |   |   |   |   |   |   |   |   |--- title_title_cos_dlm_dc0_dlm_dc0 <= 0.21
|   |   |   |   |   |   |   |   |   |   |   |--- truncated branch of depth 3
|   |   |   |   |   |   |   |   |   |   |--- title_title_cos_dlm_dc0_dlm_dc0 >  0.21
|   |   |   |   |   |   |   |   |   |   |   |--- truncated branch of depth 5
|   |   |   |   |   |   |   |   |--- title_title_cos_dlm_dc0_dlm_dc0 >  0.27
|   |   |   |   |   |   |   |   |   |--- manufacturer_manufacturer_jac_qgm_3_qgm_3 <= inf
|   |   |   |   |   |   |   |   |   |   |--- class: 0.0
|   |   |   |   |   |   |   |   |   |--- manufacturer_manufacturer_jac_qgm_3_qgm_3 >  inf
|   |   |   |   |   |   |   |   |   |   |--- price_price_lev_dist <= 1.50
|   |   |   |   |   |   |   |   |   |   |   |--- truncated branch of depth 3
|   |   |   |   |   |   |   |   |   |   |--- price_price_lev_dist >  1.50
|   |   |   |   |   |   |   |   |   |   |   |--- class: 0.0
|   |   |   |   |   |   |--- title_title_cos_dlm_dc0_dlm_dc0 >  0.28
|   |   |   |   |   |   |   |--- class: 0.0
|   |   |   |   |   |--- title_title_cos_dlm_dc0_dlm_dc0 >  0.31
|   |   |   |   |   |   |--- price_price_anm <= 0.88
|   |   |   |   |   |   |   |--- price_price_anm <= 0.87
|   |   |   |   |   |   |   |   |--- class: 1.0
|   |   |   |   |   |   |   |--- price_price_anm >  0.87
|   |   |   |   |   |   |   |   |--- price_price_anm <= 0.87
|   |   |   |   |   |   |   |   |   |--- class: 0.0
|   |   |   |   |   |   |   |   |--- price_price_anm >  0.87
|   |   |   |   |   |   |   |   |   |--- title_title_jac_dlm_dc0_dlm_dc0 <= 0.16
|   |   |   |   |   |   |   |   |   |   |--- class: 0.0
|   |   |   |   |   |   |   |   |   |--- title_title_jac_dlm_dc0_dlm_dc0 >  0.16
|   |   |   |   |   |   |   |   |   |   |--- class: 1.0
|   |   |   |   |   |   |--- price_price_anm >  0.88
|   |   |   |   |   |   |   |--- class: 0.0
|   |   |--- manufacturer_manufacturer_overlap_qgm_3_qgm_3 >  12.50
|   |   |   |--- manufacturer_manufacturer_jac_qgm_3_qgm_3 <= 0.91
|   |   |   |   |--- class: 0.0
|   |   |   |--- manufacturer_manufacturer_jac_qgm_3_qgm_3 >  0.91
|   |   |   |   |--- price_price_lev_dist <= 1.50
|   |   |   |   |   |--- class: 0.0
|   |   |   |   |--- price_price_lev_dist >  1.50
|   |   |   |   |   |--- manufacturer_manufacturer_overlap_qgm_3_qgm_3 <= 21.00
|   |   |   |   |   |   |--- title_title_cos_dlm_dc0_dlm_dc0 <= 0.15
|   |   |   |   |   |   |   |--- class: 0.0
|   |   |   |   |   |   |--- title_title_cos_dlm_dc0_dlm_dc0 >  0.15
|   |   |   |   |   |   |   |--- class: 1.0
|   |   |   |   |   |--- manufacturer_manufacturer_overlap_qgm_3_qgm_3 >  21.00
|   |   |   |   |   |   |--- title_title_cos_dlm_dc0_dlm_dc0 <= 0.32
|   |   |   |   |   |   |   |--- class: 0.0
|   |   |   |   |   |   |--- title_title_cos_dlm_dc0_dlm_dc0 >  0.32
|   |   |   |   |   |   |   |--- class: 1.0
|   |--- title_title_jac_dlm_dc0_dlm_dc0 >  0.17
|   |   |--- title_title_dice_dlm_dc0_dlm_dc0 <= 0.38
|   |   |   |--- price_price_anm <= 0.72
|   |   |   |   |--- manufacturer_manufacturer_dice_qgm_3_qgm_3 <= 0.66
|   |   |   |   |   |--- price_price_anm <= 0.56
|   |   |   |   |   |   |--- class: 0.0
|   |   |   |   |   |--- price_price_anm >  0.56
|   |   |   |   |   |   |--- title_title_dice_dlm_dc0_dlm_dc0 <= 0.35
|   |   |   |   |   |   |   |--- title_title_cos_dlm_dc0_dlm_dc0 <= 0.32
|   |   |   |   |   |   |   |   |--- manufacturer_manufacturer_jac_qgm_3_qgm_3 <= inf
|   |   |   |   |   |   |   |   |   |--- class: 0.0
|   |   |   |   |   |   |   |   |--- manufacturer_manufacturer_jac_qgm_3_qgm_3 >  inf
|   |   |   |   |   |   |   |   |   |--- price_price_lev_dist <= 3.50
|   |   |   |   |   |   |   |   |   |   |--- class: 0.0
|   |   |   |   |   |   |   |   |   |--- price_price_lev_dist >  3.50
|   |   |   |   |   |   |   |   |   |   |--- title_title_cos_dlm_dc0_dlm_dc0 <= 0.31
|   |   |   |   |   |   |   |   |   |   |   |--- class: 0.0
|   |   |   |   |   |   |   |   |   |   |--- title_title_cos_dlm_dc0_dlm_dc0 >  0.31
|   |   |   |   |   |   |   |   |   |   |   |--- truncated branch of depth 3
|   |   |   |   |   |   |   |--- title_title_cos_dlm_dc0_dlm_dc0 >  0.32
|   |   |   |   |   |   |   |   |--- class: 0.0
|   |   |   |   |   |   |--- title_title_dice_dlm_dc0_dlm_dc0 >  0.35
|   |   |   |   |   |   |   |--- price_price_lev_dist <= 1.50
|   |   |   |   |   |   |   |   |--- class: 0.0
|   |   |   |   |   |   |   |--- price_price_lev_dist >  1.50
|   |   |   |   |   |   |   |   |--- title_title_cos_dlm_dc0_dlm_dc0 <= 0.39
|   |   |   |   |   |   |   |   |   |--- price_price_anm <= 0.59
|   |   |   |   |   |   |   |   |   |   |--- price_price_lev_dist <= 3.50
|   |   |   |   |   |   |   |   |   |   |   |--- truncated branch of depth 2
|   |   |   |   |   |   |   |   |   |   |--- price_price_lev_dist >  3.50
|   |   |   |   |   |   |   |   |   |   |   |--- truncated branch of depth 2
|   |   |   |   |   |   |   |   |   |--- price_price_anm >  0.59
|   |   |   |   |   |   |   |   |   |   |--- class: 0.0
|   |   |   |   |   |   |   |   |--- title_title_cos_dlm_dc0_dlm_dc0 >  0.39
|   |   |   |   |   |   |   |   |   |--- class: 0.0
|   |   |   |   |--- manufacturer_manufacturer_dice_qgm_3_qgm_3 >  0.66
|   |   |   |   |   |--- manufacturer_manufacturer_overlap_qgm_3_qgm_3 <= 19.50
|   |   |   |   |   |   |--- class: 0.0
|   |   |   |   |   |--- manufacturer_manufacturer_overlap_qgm_3_qgm_3 >  19.50
|   |   |   |   |   |   |--- price_price_anm <= 0.34
|   |   |   |   |   |   |   |--- class: 1.0
|   |   |   |   |   |   |--- price_price_anm >  0.34
|   |   |   |   |   |   |   |--- class: 0.0
|   |   |   |--- price_price_anm >  0.72
|   |   |   |   |--- manufacturer_manufacturer_dice_qgm_3_qgm_3 <= 0.88
|   |   |   |   |   |--- manufacturer_manufacturer_dice_qgm_3_qgm_3 <= 0.06
|   |   |   |   |   |   |--- title_title_cos_dlm_dc0_dlm_dc0 <= 0.38
|   |   |   |   |   |   |   |--- price_price_anm <= 0.87
|   |   |   |   |   |   |   |   |--- title_title_cos_dlm_dc0_dlm_dc0 <= 0.31
|   |   |   |   |   |   |   |   |   |--- class: 0.0
|   |   |   |   |   |   |   |   |--- title_title_cos_dlm_dc0_dlm_dc0 >  0.31
|   |   |   |   |   |   |   |   |   |--- price_price_lev_dist <= 1.50
|   |   |   |   |   |   |   |   |   |   |--- class: 0.0
|   |   |   |   |   |   |   |   |   |--- price_price_lev_dist >  1.50
|   |   |   |   |   |   |   |   |   |   |--- title_title_jac_dlm_dc0_dlm_dc0 <= 0.21
|   |   |   |   |   |   |   |   |   |   |   |--- truncated branch of depth 11
|   |   |   |   |   |   |   |   |   |   |--- title_title_jac_dlm_dc0_dlm_dc0 >  0.21
|   |   |   |   |   |   |   |   |   |   |   |--- truncated branch of depth 5
|   |   |   |   |   |   |   |--- price_price_anm >  0.87
|   |   |   |   |   |   |   |   |--- title_title_cos_dlm_dc0_dlm_dc0 <= 0.37
|   |   |   |   |   |   |   |   |   |--- price_price_anm <= 0.90
|   |   |   |   |   |   |   |   |   |   |--- price_price_lev_dist <= 4.00
|   |   |   |   |   |   |   |   |   |   |   |--- truncated branch of depth 5
|   |   |   |   |   |   |   |   |   |   |--- price_price_lev_dist >  4.00
|   |   |   |   |   |   |   |   |   |   |   |--- class: 0.0
|   |   |   |   |   |   |   |   |   |--- price_price_anm >  0.90
|   |   |   |   |   |   |   |   |   |   |--- title_title_jac_dlm_dc0_dlm_dc0 <= 0.21
|   |   |   |   |   |   |   |   |   |   |   |--- truncated branch of depth 7
|   |   |   |   |   |   |   |   |   |   |--- title_title_jac_dlm_dc0_dlm_dc0 >  0.21
|   |   |   |   |   |   |   |   |   |   |   |--- truncated branch of depth 5
|   |   |   |   |   |   |   |   |--- title_title_cos_dlm_dc0_dlm_dc0 >  0.37
|   |   |   |   |   |   |   |   |   |--- class: 0.0
|   |   |   |   |   |   |--- title_title_cos_dlm_dc0_dlm_dc0 >  0.38
|   |   |   |   |   |   |   |--- price_price_exm <= inf
|   |   |   |   |   |   |   |   |--- title_title_dice_dlm_dc0_dlm_dc0 <= 0.32
|   |   |   |   |   |   |   |   |   |--- class: 1.0
|   |   |   |   |   |   |   |   |--- title_title_dice_dlm_dc0_dlm_dc0 >  0.32
|   |   |   |   |   |   |   |   |   |--- title_title_jac_dlm_dc0_dlm_dc0 <= 0.21
|   |   |   |   |   |   |   |   |   |   |--- title_title_cos_dlm_dc0_dlm_dc0 <= 0.42
|   |   |   |   |   |   |   |   |   |   |   |--- truncated branch of depth 2
|   |   |   |   |   |   |   |   |   |   |--- title_title_cos_dlm_dc0_dlm_dc0 >  0.42
|   |   |   |   |   |   |   |   |   |   |   |--- class: 1.0
|   |   |   |   |   |   |   |   |   |--- title_title_jac_dlm_dc0_dlm_dc0 >  0.21
|   |   |   |   |   |   |   |   |   |   |--- price_price_exm <= 0.50
|   |   |   |   |   |   |   |   |   |   |   |--- truncated branch of depth 4
|   |   |   |   |   |   |   |   |   |   |--- price_price_exm >  0.50
|   |   |   |   |   |   |   |   |   |   |   |--- class: 1.0
|   |   |   |   |   |   |   |--- price_price_exm >  inf
|   |   |   |   |   |   |   |   |--- title_title_cos_dlm_dc0_dlm_dc0 <= 0.44
|   |   |   |   |   |   |   |   |   |--- class: 0.0
|   |   |   |   |   |   |   |   |--- title_title_cos_dlm_dc0_dlm_dc0 >  0.44
|   |   |   |   |   |   |   |   |   |--- class: 1.0
|   |   |   |   |   |--- manufacturer_manufacturer_dice_qgm_3_qgm_3 >  0.06
|   |   |   |   |   |   |--- class: 0.0
|   |   |   |   |--- manufacturer_manufacturer_dice_qgm_3_qgm_3 >  0.88
|   |   |   |   |   |--- title_title_overlap_dlm_dc0_dlm_dc0 <= 1.50
|   |   |   |   |   |   |--- class: 0.0
|   |   |   |   |   |--- title_title_overlap_dlm_dc0_dlm_dc0 >  1.50
|   |   |   |   |   |   |--- title_title_jac_dlm_dc0_dlm_dc0 <= 0.21
|   |   |   |   |   |   |   |--- price_price_lev_dist <= 1.50
|   |   |   |   |   |   |   |   |--- price_price_exm <= 0.50
|   |   |   |   |   |   |   |   |   |--- class: 1.0
|   |   |   |   |   |   |   |   |--- price_price_exm >  0.50
|   |   |   |   |   |   |   |   |   |--- manufacturer_manufacturer_overlap_qgm_3_qgm_3 <= 15.00
|   |   |   |   |   |   |   |   |   |   |--- class: 0.0
|   |   |   |   |   |   |   |   |   |--- manufacturer_manufacturer_overlap_qgm_3_qgm_3 >  15.00
|   |   |   |   |   |   |   |   |   |   |--- class: 1.0
|   |   |   |   |   |   |   |--- price_price_lev_dist >  1.50
|   |   |   |   |   |   |   |   |--- price_price_lev_dist <= 2.50
|   |   |   |   |   |   |   |   |   |--- class: 0.0
|   |   |   |   |   |   |   |   |--- price_price_lev_dist >  2.50
|   |   |   |   |   |   |   |   |   |--- class: 1.0
|   |   |   |   |   |   |--- title_title_jac_dlm_dc0_dlm_dc0 >  0.21
|   |   |   |   |   |   |   |--- manufacturer_manufacturer_overlap_qgm_3_qgm_3 <= 14.50
|   |   |   |   |   |   |   |   |--- class: 0.0
|   |   |   |   |   |   |   |--- manufacturer_manufacturer_overlap_qgm_3_qgm_3 >  14.50
|   |   |   |   |   |   |   |   |--- manufacturer_manufacturer_overlap_qgm_3_qgm_3 <= 16.00
|   |   |   |   |   |   |   |   |   |--- class: 1.0
|   |   |   |   |   |   |   |   |--- manufacturer_manufacturer_overlap_qgm_3_qgm_3 >  16.00
|   |   |   |   |   |   |   |   |   |--- price_price_anm <= 0.83
|   |   |   |   |   |   |   |   |   |   |--- class: 0.0
|   |   |   |   |   |   |   |   |   |--- price_price_anm >  0.83
|   |   |   |   |   |   |   |   |   |   |--- class: 1.0
|   |   |--- title_title_dice_dlm_dc0_dlm_dc0 >  0.38
|   |   |   |--- title_title_dice_dlm_dc0_dlm_dc0 <= 0.47
|   |   |   |   |--- manufacturer_manufacturer_dice_qgm_3_qgm_3 <= 0.97
|   |   |   |   |   |--- class: 0.0
|   |   |   |   |--- manufacturer_manufacturer_dice_qgm_3_qgm_3 >  0.97
|   |   |   |   |   |--- title_title_cos_dlm_dc0_dlm_dc0 <= 0.49
|   |   |   |   |   |   |--- title_title_dice_dlm_dc0_dlm_dc0 <= 0.42
|   |   |   |   |   |   |   |--- title_title_cos_dlm_dc0_dlm_dc0 <= 0.40
|   |   |   |   |   |   |   |   |--- price_price_lev_dist <= 1.50
|   |   |   |   |   |   |   |   |   |--- class: 0.0
|   |   |   |   |   |   |   |   |--- price_price_lev_dist >  1.50
|   |   |   |   |   |   |   |   |   |--- price_price_anm <= 0.55
|   |   |   |   |   |   |   |   |   |   |--- class: 0.0
|   |   |   |   |   |   |   |   |   |--- price_price_anm >  0.55
|   |   |   |   |   |   |   |   |   |   |--- price_price_anm <= 0.83
|   |   |   |   |   |   |   |   |   |   |   |--- truncated branch of depth 7
|   |   |   |   |   |   |   |   |   |   |--- price_price_anm >  0.83
|   |   |   |   |   |   |   |   |   |   |   |--- class: 0.0
|   |   |   |   |   |   |   |--- title_title_cos_dlm_dc0_dlm_dc0 >  0.40
|   |   |   |   |   |   |   |   |--- price_price_exm <= 0.50
|   |   |   |   |   |   |   |   |   |--- title_title_overlap_dlm_dc0_dlm_dc0 <= 1.50
|   |   |   |   |   |   |   |   |   |   |--- price_price_lev_dist <= 2.50
|   |   |   |   |   |   |   |   |   |   |   |--- truncated branch of depth 4
|   |   |   |   |   |   |   |   |   |   |--- price_price_lev_dist >  2.50
|   |   |   |   |   |   |   |   |   |   |   |--- class: 0.0
|   |   |   |   |   |   |   |   |   |--- title_title_overlap_dlm_dc0_dlm_dc0 >  1.50
|   |   |   |   |   |   |   |   |   |   |--- price_price_anm <= 0.69
|   |   |   |   |   |   |   |   |   |   |   |--- class: 0.0
|   |   |   |   |   |   |   |   |   |   |--- price_price_anm >  0.69
|   |   |   |   |   |   |   |   |   |   |   |--- truncated branch of depth 7
|   |   |   |   |   |   |   |   |--- price_price_exm >  0.50
|   |   |   |   |   |   |   |   |   |--- title_title_overlap_dlm_dc0_dlm_dc0 <= 1.50
|   |   |   |   |   |   |   |   |   |   |--- class: 1.0
|   |   |   |   |   |   |   |   |   |--- title_title_overlap_dlm_dc0_dlm_dc0 >  1.50
|   |   |   |   |   |   |   |   |   |   |--- manufacturer_manufacturer_overlap_qgm_3_qgm_3 <= 20.00
|   |   |   |   |   |   |   |   |   |   |   |--- truncated branch of depth 2
|   |   |   |   |   |   |   |   |   |   |--- manufacturer_manufacturer_overlap_qgm_3_qgm_3 >  20.00
|   |   |   |   |   |   |   |   |   |   |   |--- class: 0.0
|   |   |   |   |   |   |--- title_title_dice_dlm_dc0_dlm_dc0 >  0.42
|   |   |   |   |   |   |   |--- price_price_anm <= 0.60
|   |   |   |   |   |   |   |   |--- class: 0.0
|   |   |   |   |   |   |   |--- price_price_anm >  0.60
|   |   |   |   |   |   |   |   |--- manufacturer_manufacturer_overlap_qgm_3_qgm_3 <= 15.50
|   |   |   |   |   |   |   |   |   |--- price_price_anm <= 0.88
|   |   |   |   |   |   |   |   |   |   |--- price_price_lev_dist <= 2.50
|   |   |   |   |   |   |   |   |   |   |   |--- truncated branch of depth 6
|   |   |   |   |   |   |   |   |   |   |--- price_price_lev_dist >  2.50
|   |   |   |   |   |   |   |   |   |   |   |--- class: 0.0
|   |   |   |   |   |   |   |   |   |--- price_price_anm >  0.88
|   |   |   |   |   |   |   |   |   |   |--- price_price_exm <= 0.50
|   |   |   |   |   |   |   |   |   |   |   |--- truncated branch of depth 6
|   |   |   |   |   |   |   |   |   |   |--- price_price_exm >  0.50
|   |   |   |   |   |   |   |   |   |   |   |--- truncated branch of depth 2
|   |   |   |   |   |   |   |   |--- manufacturer_manufacturer_overlap_qgm_3_qgm_3 >  15.50
|   |   |   |   |   |   |   |   |   |--- title_title_cos_dlm_dc0_dlm_dc0 <= 0.46
|   |   |   |   |   |   |   |   |   |   |--- price_price_anm <= 0.74
|   |   |   |   |   |   |   |   |   |   |   |--- class: 0.0
|   |   |   |   |   |   |   |   |   |   |--- price_price_anm >  0.74
|   |   |   |   |   |   |   |   |   |   |   |--- class: 1.0
|   |   |   |   |   |   |   |   |   |--- title_title_cos_dlm_dc0_dlm_dc0 >  0.46
|   |   |   |   |   |   |   |   |   |   |--- class: 1.0
|   |   |   |   |   |--- title_title_cos_dlm_dc0_dlm_dc0 >  0.49
|   |   |   |   |   |   |--- title_title_cos_dlm_dc0_dlm_dc0 <= 0.52
|   |   |   |   |   |   |   |--- title_title_overlap_dlm_dc0_dlm_dc0 <= 1.50
|   |   |   |   |   |   |   |   |--- price_price_lev_dist <= 2.50
|   |   |   |   |   |   |   |   |   |--- class: 0.0
|   |   |   |   |   |   |   |   |--- price_price_lev_dist >  2.50
|   |   |   |   |   |   |   |   |   |--- class: 1.0
|   |   |   |   |   |   |   |--- title_title_overlap_dlm_dc0_dlm_dc0 >  1.50
|   |   |   |   |   |   |   |   |--- price_price_anm <= 0.92
|   |   |   |   |   |   |   |   |   |--- class: 0.0
|   |   |   |   |   |   |   |   |--- price_price_anm >  0.92
|   |   |   |   |   |   |   |   |   |--- class: 1.0
|   |   |   |   |   |   |--- title_title_cos_dlm_dc0_dlm_dc0 >  0.52
|   |   |   |   |   |   |   |--- class: 1.0
|   |   |   |--- title_title_dice_dlm_dc0_dlm_dc0 >  0.47
|   |   |   |   |--- manufacturer_manufacturer_dice_qgm_3_qgm_3 <= 0.24
|   |   |   |   |   |--- title_title_jac_dlm_dc0_dlm_dc0 <= 0.37
|   |   |   |   |   |   |--- price_price_anm <= 0.55
|   |   |   |   |   |   |   |--- class: 0.0
|   |   |   |   |   |   |--- price_price_anm >  0.55
|   |   |   |   |   |   |   |--- manufacturer_manufacturer_lev_dist <= 22.50
|   |   |   |   |   |   |   |   |--- class: 0.0
|   |   |   |   |   |   |   |--- manufacturer_manufacturer_lev_dist >  22.50
|   |   |   |   |   |   |   |   |--- title_title_overlap_dlm_dc0_dlm_dc0 <= 1.50
|   |   |   |   |   |   |   |   |   |--- price_price_lev_dist <= inf
|   |   |   |   |   |   |   |   |   |   |--- class: 1.0
|   |   |   |   |   |   |   |   |   |--- price_price_lev_dist >  inf
|   |   |   |   |   |   |   |   |   |   |--- class: 0.0
|   |   |   |   |   |   |   |   |--- title_title_overlap_dlm_dc0_dlm_dc0 >  1.50
|   |   |   |   |   |   |   |   |   |--- price_price_anm <= 0.73
|   |   |   |   |   |   |   |   |   |   |--- price_price_lev_dist <= 2.50
|   |   |   |   |   |   |   |   |   |   |   |--- class: 0.0
|   |   |   |   |   |   |   |   |   |   |--- price_price_lev_dist >  2.50
|   |   |   |   |   |   |   |   |   |   |   |--- truncated branch of depth 3
|   |   |   |   |   |   |   |   |   |--- price_price_anm >  0.73
|   |   |   |   |   |   |   |   |   |   |--- title_title_cos_dlm_dc0_dlm_dc0 <= 0.51
|   |   |   |   |   |   |   |   |   |   |   |--- truncated branch of depth 7
|   |   |   |   |   |   |   |   |   |   |--- title_title_cos_dlm_dc0_dlm_dc0 >  0.51
|   |   |   |   |   |   |   |   |   |   |   |--- truncated branch of depth 4
|   |   |   |   |   |--- title_title_jac_dlm_dc0_dlm_dc0 >  0.37
|   |   |   |   |   |   |--- price_price_lev_dist <= 4.50
|   |   |   |   |   |   |   |--- price_price_exm <= 0.50
|   |   |   |   |   |   |   |   |--- title_title_dice_dlm_dc0_dlm_dc0 <= 0.62
|   |   |   |   |   |   |   |   |   |--- price_price_anm <= 0.73
|   |   |   |   |   |   |   |   |   |   |--- class: 0.0
|   |   |   |   |   |   |   |   |   |--- price_price_anm >  0.73
|   |   |   |   |   |   |   |   |   |   |--- price_price_anm <= 0.88
|   |   |   |   |   |   |   |   |   |   |   |--- truncated branch of depth 7
|   |   |   |   |   |   |   |   |   |   |--- price_price_anm >  0.88
|   |   |   |   |   |   |   |   |   |   |   |--- truncated branch of depth 6
|   |   |   |   |   |   |   |   |--- title_title_dice_dlm_dc0_dlm_dc0 >  0.62
|   |   |   |   |   |   |   |   |   |--- title_title_jac_dlm_dc0_dlm_dc0 <= 0.58
|   |   |   |   |   |   |   |   |   |   |--- title_title_cos_dlm_dc0_dlm_dc0 <= 0.69
|   |   |   |   |   |   |   |   |   |   |   |--- class: 0.0
|   |   |   |   |   |   |   |   |   |   |--- title_title_cos_dlm_dc0_dlm_dc0 >  0.69
|   |   |   |   |   |   |   |   |   |   |   |--- truncated branch of depth 6
|   |   |   |   |   |   |   |   |   |--- title_title_jac_dlm_dc0_dlm_dc0 >  0.58
|   |   |   |   |   |   |   |   |   |   |--- price_price_lev_dist <= 2.50
|   |   |   |   |   |   |   |   |   |   |   |--- truncated branch of depth 5
|   |   |   |   |   |   |   |   |   |   |--- price_price_lev_dist >  2.50
|   |   |   |   |   |   |   |   |   |   |   |--- class: 0.0
|   |   |   |   |   |   |   |--- price_price_exm >  0.50
|   |   |   |   |   |   |   |   |--- title_title_dice_dlm_dc0_dlm_dc0 <= 0.62
|   |   |   |   |   |   |   |   |   |--- title_title_cos_dlm_dc0_dlm_dc0 <= 0.60
|   |   |   |   |   |   |   |   |   |   |--- class: 1.0
|   |   |   |   |   |   |   |   |   |--- title_title_cos_dlm_dc0_dlm_dc0 >  0.60
|   |   |   |   |   |   |   |   |   |   |--- class: 0.0
|   |   |   |   |   |   |   |   |--- title_title_dice_dlm_dc0_dlm_dc0 >  0.62
|   |   |   |   |   |   |   |   |   |--- title_title_cos_dlm_dc0_dlm_dc0 <= 0.91
|   |   |   |   |   |   |   |   |   |   |--- title_title_jac_dlm_dc0_dlm_dc0 <= 0.58
|   |   |   |   |   |   |   |   |   |   |   |--- truncated branch of depth 2
|   |   |   |   |   |   |   |   |   |   |--- title_title_jac_dlm_dc0_dlm_dc0 >  0.58
|   |   |   |   |   |   |   |   |   |   |   |--- class: 1.0
|   |   |   |   |   |   |   |   |   |--- title_title_cos_dlm_dc0_dlm_dc0 >  0.91
|   |   |   |   |   |   |   |   |   |   |--- class: 1.0
|   |   |   |   |   |   |--- price_price_lev_dist >  4.50
|   |   |   |   |   |   |   |--- class: 0.0
|   |   |   |   |--- manufacturer_manufacturer_dice_qgm_3_qgm_3 >  0.24
|   |   |   |   |   |--- title_title_cos_dlm_dc0_dlm_dc0 <= 0.55
|   |   |   |   |   |   |--- title_title_cos_dlm_dc0_dlm_dc0 <= 0.51
|   |   |   |   |   |   |   |--- class: 1.0
|   |   |   |   |   |   |--- title_title_cos_dlm_dc0_dlm_dc0 >  0.51
|   |   |   |   |   |   |   |--- class: 0.0
|   |   |   |   |   |--- title_title_cos_dlm_dc0_dlm_dc0 >  0.55
|   |   |   |   |   |   |--- manufacturer_manufacturer_lev_dist <= 9.50
|   |   |   |   |   |   |   |--- title_title_jac_dlm_dc0_dlm_dc0 <= 0.37
|   |   |   |   |   |   |   |   |--- class: 1.0
|   |   |   |   |   |   |   |--- title_title_jac_dlm_dc0_dlm_dc0 >  0.37
|   |   |   |   |   |   |   |   |--- price_price_anm <= 0.36
|   |   |   |   |   |   |   |   |   |--- class: 1.0
|   |   |   |   |   |   |   |   |--- price_price_anm >  0.36
|   |   |   |   |   |   |   |   |   |--- price_price_lev_dist <= 1.00
|   |   |   |   |   |   |   |   |   |   |--- class: 1.0
|   |   |   |   |   |   |   |   |   |--- price_price_lev_dist >  1.00
|   |   |   |   |   |   |   |   |   |   |--- price_price_lev_dist <= 2.50
|   |   |   |   |   |   |   |   |   |   |   |--- class: 0.0
|   |   |   |   |   |   |   |   |   |   |--- price_price_lev_dist >  2.50
|   |   |   |   |   |   |   |   |   |   |   |--- truncated branch of depth 2
|   |   |   |   |   |   |--- manufacturer_manufacturer_lev_dist >  9.50
|   |   |   |   |   |   |   |--- class: 0.0
|--- title_title_overlap_dlm_dc0_dlm_dc0 >  2.50
|   |--- title_title_dice_dlm_dc0_dlm_dc0 <= 0.38
|   |   |--- title_title_cos_dlm_dc0_dlm_dc0 <= 0.37
|   |   |   |--- manufacturer_manufacturer_exm <= 0.50
|   |   |   |   |--- price_price_lev_dist <= 2.50
|   |   |   |   |   |--- price_price_anm <= 0.84
|   |   |   |   |   |   |--- class: 0.0
|   |   |   |   |   |--- price_price_anm >  0.84
|   |   |   |   |   |   |--- title_title_jac_dlm_dc0_dlm_dc0 <= 0.18
|   |   |   |   |   |   |   |--- title_title_dice_dlm_dc0_dlm_dc0 <= 0.26
|   |   |   |   |   |   |   |   |--- class: 0.0
|   |   |   |   |   |   |   |--- title_title_dice_dlm_dc0_dlm_dc0 >  0.26
|   |   |   |   |   |   |   |   |--- title_title_dice_dlm_dc0_dlm_dc0 <= 0.27
|   |   |   |   |   |   |   |   |   |--- class: 1.0
|   |   |   |   |   |   |   |   |--- title_title_dice_dlm_dc0_dlm_dc0 >  0.27
|   |   |   |   |   |   |   |   |   |--- title_title_overlap_dlm_dc0_dlm_dc0 <= 3.50
|   |   |   |   |   |   |   |   |   |   |--- class: 0.0
|   |   |   |   |   |   |   |   |   |--- title_title_overlap_dlm_dc0_dlm_dc0 >  3.50
|   |   |   |   |   |   |   |   |   |   |--- class: 1.0
|   |   |   |   |   |   |--- title_title_jac_dlm_dc0_dlm_dc0 >  0.18
|   |   |   |   |   |   |   |--- class: 0.0
|   |   |   |   |--- price_price_lev_dist >  2.50
|   |   |   |   |   |--- manufacturer_manufacturer_dice_qgm_3_qgm_3 <= 0.49
|   |   |   |   |   |   |--- title_title_cos_dlm_dc0_dlm_dc0 <= 0.28
|   |   |   |   |   |   |   |--- class: 0.0
|   |   |   |   |   |   |--- title_title_cos_dlm_dc0_dlm_dc0 >  0.28
|   |   |   |   |   |   |   |--- title_title_dice_dlm_dc0_dlm_dc0 <= 0.26
|   |   |   |   |   |   |   |   |--- price_price_lev_dist <= inf
|   |   |   |   |   |   |   |   |   |--- class: 0.0
|   |   |   |   |   |   |   |   |--- price_price_lev_dist >  inf
|   |   |   |   |   |   |   |   |   |--- class: 1.0
|   |   |   |   |   |   |   |--- title_title_dice_dlm_dc0_dlm_dc0 >  0.26
|   |   |   |   |   |   |   |   |--- title_title_dice_dlm_dc0_dlm_dc0 <= 0.30
|   |   |   |   |   |   |   |   |   |--- price_price_lev_dist <= inf
|   |   |   |   |   |   |   |   |   |   |--- class: 0.0
|   |   |   |   |   |   |   |   |   |--- price_price_lev_dist >  inf
|   |   |   |   |   |   |   |   |   |   |--- title_title_cos_dlm_dc0_dlm_dc0 <= 0.34
|   |   |   |   |   |   |   |   |   |   |   |--- class: 0.0
|   |   |   |   |   |   |   |   |   |   |--- title_title_cos_dlm_dc0_dlm_dc0 >  0.34
|   |   |   |   |   |   |   |   |   |   |   |--- truncated branch of depth 2
|   |   |   |   |   |   |   |   |--- title_title_dice_dlm_dc0_dlm_dc0 >  0.30
|   |   |   |   |   |   |   |   |   |--- price_price_lev_dist <= 5.50
|   |   |   |   |   |   |   |   |   |   |--- title_title_cos_dlm_dc0_dlm_dc0 <= 0.31
|   |   |   |   |   |   |   |   |   |   |   |--- class: 1.0
|   |   |   |   |   |   |   |   |   |   |--- title_title_cos_dlm_dc0_dlm_dc0 >  0.31
|   |   |   |   |   |   |   |   |   |   |   |--- truncated branch of depth 9
|   |   |   |   |   |   |   |   |   |--- price_price_lev_dist >  5.50
|   |   |   |   |   |   |   |   |   |   |--- title_title_dice_dlm_dc0_dlm_dc0 <= 0.32
|   |   |   |   |   |   |   |   |   |   |   |--- class: 0.0
|   |   |   |   |   |   |   |   |   |   |--- title_title_dice_dlm_dc0_dlm_dc0 >  0.32
|   |   |   |   |   |   |   |   |   |   |   |--- truncated branch of depth 3
|   |   |   |   |   |--- manufacturer_manufacturer_dice_qgm_3_qgm_3 >  0.49
|   |   |   |   |   |   |--- manufacturer_manufacturer_jac_qgm_3_qgm_3 <= 0.37
|   |   |   |   |   |   |   |--- class: 1.0
|   |   |   |   |   |   |--- manufacturer_manufacturer_jac_qgm_3_qgm_3 >  0.37
|   |   |   |   |   |   |   |--- class: 0.0
|   |   |   |--- manufacturer_manufacturer_exm >  0.50
|   |   |   |   |--- title_title_cos_dlm_dc0_dlm_dc0 <= 0.33
|   |   |   |   |   |--- class: 0.0
|   |   |   |   |--- title_title_cos_dlm_dc0_dlm_dc0 >  0.33
|   |   |   |   |   |--- title_title_jac_dlm_dc0_dlm_dc0 <= 0.21
|   |   |   |   |   |   |--- price_price_anm <= 0.74
|   |   |   |   |   |   |   |--- class: 0.0
|   |   |   |   |   |   |--- price_price_anm >  0.74
|   |   |   |   |   |   |   |--- class: 1.0
|   |   |   |   |   |--- title_title_jac_dlm_dc0_dlm_dc0 >  0.21
|   |   |   |   |   |   |--- class: 0.0
|   |   |--- title_title_cos_dlm_dc0_dlm_dc0 >  0.37
|   |   |   |--- price_price_anm <= 0.51
|   |   |   |   |--- class: 0.0
|   |   |   |--- price_price_anm >  0.51
|   |   |   |   |--- price_price_anm <= 0.88
|   |   |   |   |   |--- title_title_overlap_dlm_dc0_dlm_dc0 <= 3.50
|   |   |   |   |   |   |--- title_title_cos_dlm_dc0_dlm_dc0 <= 0.40
|   |   |   |   |   |   |   |--- title_title_jac_dlm_dc0_dlm_dc0 <= 0.21
|   |   |   |   |   |   |   |   |--- price_price_anm <= 0.86
|   |   |   |   |   |   |   |   |   |--- class: 0.0
|   |   |   |   |   |   |   |   |--- price_price_anm >  0.86
|   |   |   |   |   |   |   |   |   |--- class: 1.0
|   |   |   |   |   |   |   |--- title_title_jac_dlm_dc0_dlm_dc0 >  0.21
|   |   |   |   |   |   |   |   |--- class: 0.0
|   |   |   |   |   |   |--- title_title_cos_dlm_dc0_dlm_dc0 >  0.40
|   |   |   |   |   |   |   |--- title_title_dice_dlm_dc0_dlm_dc0 <= 0.36
|   |   |   |   |   |   |   |   |--- class: 0.0
|   |   |   |   |   |   |   |--- title_title_dice_dlm_dc0_dlm_dc0 >  0.36
|   |   |   |   |   |   |   |   |--- manufacturer_manufacturer_lev_dist <= 4.50
|   |   |   |   |   |   |   |   |   |--- class: 0.0
|   |   |   |   |   |   |   |   |--- manufacturer_manufacturer_lev_dist >  4.50
|   |   |   |   |   |   |   |   |   |--- price_price_lev_dist <= 3.50
|   |   |   |   |   |   |   |   |   |   |--- price_price_anm <= 0.62
|   |   |   |   |   |   |   |   |   |   |   |--- class: 1.0
|   |   |   |   |   |   |   |   |   |   |--- price_price_anm >  0.62
|   |   |   |   |   |   |   |   |   |   |   |--- truncated branch of depth 2
|   |   |   |   |   |   |   |   |   |--- price_price_lev_dist >  3.50
|   |   |   |   |   |   |   |   |   |   |--- class: 0.0
|   |   |   |   |   |--- title_title_overlap_dlm_dc0_dlm_dc0 >  3.50
|   |   |   |   |   |   |--- title_title_jac_dlm_dc0_dlm_dc0 <= 0.23
|   |   |   |   |   |   |   |--- title_title_dice_dlm_dc0_dlm_dc0 <= 0.36
|   |   |   |   |   |   |   |   |--- price_price_lev_dist <= 4.00
|   |   |   |   |   |   |   |   |   |--- title_title_dice_dlm_dc0_dlm_dc0 <= 0.34
|   |   |   |   |   |   |   |   |   |   |--- class: 1.0
|   |   |   |   |   |   |   |   |   |--- title_title_dice_dlm_dc0_dlm_dc0 >  0.34
|   |   |   |   |   |   |   |   |   |   |--- title_title_cos_dlm_dc0_dlm_dc0 <= 0.39
|   |   |   |   |   |   |   |   |   |   |   |--- class: 1.0
|   |   |   |   |   |   |   |   |   |   |--- title_title_cos_dlm_dc0_dlm_dc0 >  0.39
|   |   |   |   |   |   |   |   |   |   |   |--- class: 0.0
|   |   |   |   |   |   |   |   |--- price_price_lev_dist >  4.00
|   |   |   |   |   |   |   |   |   |--- class: 0.0
|   |   |   |   |   |   |   |--- title_title_dice_dlm_dc0_dlm_dc0 >  0.36
|   |   |   |   |   |   |   |   |--- price_price_anm <= 0.57
|   |   |   |   |   |   |   |   |   |--- class: 0.0
|   |   |   |   |   |   |   |   |--- price_price_anm >  0.57
|   |   |   |   |   |   |   |   |   |--- title_title_cos_dlm_dc0_dlm_dc0 <= 0.38
|   |   |   |   |   |   |   |   |   |   |--- class: 0.0
|   |   |   |   |   |   |   |   |   |--- title_title_cos_dlm_dc0_dlm_dc0 >  0.38
|   |   |   |   |   |   |   |   |   |   |--- title_title_dice_dlm_dc0_dlm_dc0 <= 0.37
|   |   |   |   |   |   |   |   |   |   |   |--- truncated branch of depth 2
|   |   |   |   |   |   |   |   |   |   |--- title_title_dice_dlm_dc0_dlm_dc0 >  0.37
|   |   |   |   |   |   |   |   |   |   |   |--- class: 1.0
|   |   |   |   |   |   |--- title_title_jac_dlm_dc0_dlm_dc0 >  0.23
|   |   |   |   |   |   |   |--- class: 0.0
|   |   |   |   |--- price_price_anm >  0.88
|   |   |   |   |   |--- title_title_cos_dlm_dc0_dlm_dc0 <= 0.45
|   |   |   |   |   |   |--- price_price_lev_dist <= 2.50
|   |   |   |   |   |   |   |--- price_price_lev_dist <= 1.50
|   |   |   |   |   |   |   |   |--- class: 0.0
|   |   |   |   |   |   |   |--- price_price_lev_dist >  1.50
|   |   |   |   |   |   |   |   |--- title_title_dice_dlm_dc0_dlm_dc0 <= 0.31
|   |   |   |   |   |   |   |   |   |--- class: 0.0
|   |   |   |   |   |   |   |   |--- title_title_dice_dlm_dc0_dlm_dc0 >  0.31
|   |   |   |   |   |   |   |   |   |--- title_title_jac_dlm_dc0_dlm_dc0 <= 0.21
|   |   |   |   |   |   |   |   |   |   |--- class: 1.0
|   |   |   |   |   |   |   |   |   |--- title_title_jac_dlm_dc0_dlm_dc0 >  0.21
|   |   |   |   |   |   |   |   |   |   |--- title_title_cos_dlm_dc0_dlm_dc0 <= 0.41
|   |   |   |   |   |   |   |   |   |   |   |--- truncated branch of depth 5
|   |   |   |   |   |   |   |   |   |   |--- title_title_cos_dlm_dc0_dlm_dc0 >  0.41
|   |   |   |   |   |   |   |   |   |   |   |--- truncated branch of depth 4
|   |   |   |   |   |   |--- price_price_lev_dist >  2.50
|   |   |   |   |   |   |   |--- class: 0.0
|   |   |   |   |   |--- title_title_cos_dlm_dc0_dlm_dc0 >  0.45
|   |   |   |   |   |   |--- class: 0.0
|   |--- title_title_dice_dlm_dc0_dlm_dc0 >  0.38
|   |   |--- price_price_anm <= 0.53
|   |   |   |--- title_title_jac_dlm_dc0_dlm_dc0 <= 0.41
|   |   |   |   |--- manufacturer_manufacturer_exm <= 0.50
|   |   |   |   |   |--- manufacturer_manufacturer_cos_qgm_3_qgm_3 <= inf
|   |   |   |   |   |   |--- class: 0.0
|   |   |   |   |   |--- manufacturer_manufacturer_cos_qgm_3_qgm_3 >  inf
|   |   |   |   |   |   |--- price_price_anm <= 0.25
|   |   |   |   |   |   |   |--- class: 0.0
|   |   |   |   |   |   |--- price_price_anm >  0.25
|   |   |   |   |   |   |   |--- price_price_lev_dist <= 4.50
|   |   |   |   |   |   |   |   |--- title_title_cos_dlm_dc0_dlm_dc0 <= 0.44
|   |   |   |   |   |   |   |   |   |--- class: 0.0
|   |   |   |   |   |   |   |   |--- title_title_cos_dlm_dc0_dlm_dc0 >  0.44
|   |   |   |   |   |   |   |   |   |--- title_title_jac_dlm_dc0_dlm_dc0 <= 0.29
|   |   |   |   |   |   |   |   |   |   |--- price_price_anm <= 0.52
|   |   |   |   |   |   |   |   |   |   |   |--- truncated branch of depth 6
|   |   |   |   |   |   |   |   |   |   |--- price_price_anm >  0.52
|   |   |   |   |   |   |   |   |   |   |   |--- class: 0.0
|   |   |   |   |   |   |   |   |   |--- title_title_jac_dlm_dc0_dlm_dc0 >  0.29
|   |   |   |   |   |   |   |   |   |   |--- title_title_overlap_dlm_dc0_dlm_dc0 <= 4.50
|   |   |   |   |   |   |   |   |   |   |   |--- truncated branch of depth 6
|   |   |   |   |   |   |   |   |   |   |--- title_title_overlap_dlm_dc0_dlm_dc0 >  4.50
|   |   |   |   |   |   |   |   |   |   |   |--- class: 0.0
|   |   |   |   |   |   |   |--- price_price_lev_dist >  4.50
|   |   |   |   |   |   |   |   |--- class: 0.0
|   |   |   |   |--- manufacturer_manufacturer_exm >  0.50
|   |   |   |   |   |--- title_title_cos_dlm_dc0_dlm_dc0 <= 0.53
|   |   |   |   |   |   |--- class: 0.0
|   |   |   |   |   |--- title_title_cos_dlm_dc0_dlm_dc0 >  0.53
|   |   |   |   |   |   |--- title_title_jac_dlm_dc0_dlm_dc0 <= 0.35
|   |   |   |   |   |   |   |--- class: 1.0
|   |   |   |   |   |   |--- title_title_jac_dlm_dc0_dlm_dc0 >  0.35
|   |   |   |   |   |   |   |--- class: 0.0
|   |   |   |--- title_title_jac_dlm_dc0_dlm_dc0 >  0.41
|   |   |   |   |--- price_price_lev_dist <= 3.50
|   |   |   |   |   |--- price_price_anm <= 0.16
|   |   |   |   |   |   |--- class: 0.0
|   |   |   |   |   |--- price_price_anm >  0.16
|   |   |   |   |   |   |--- title_title_cos_dlm_dc0_dlm_dc0 <= 0.64
|   |   |   |   |   |   |   |--- price_price_anm <= 0.33
|   |   |   |   |   |   |   |   |--- price_price_anm <= 0.33
|   |   |   |   |   |   |   |   |   |--- class: 0.0
|   |   |   |   |   |   |   |   |--- price_price_anm >  0.33
|   |   |   |   |   |   |   |   |   |--- class: 1.0
|   |   |   |   |   |   |   |--- price_price_anm >  0.33
|   |   |   |   |   |   |   |   |--- class: 0.0
|   |   |   |   |   |   |--- title_title_cos_dlm_dc0_dlm_dc0 >  0.64
|   |   |   |   |   |   |   |--- manufacturer_manufacturer_jac_qgm_3_qgm_3 <= 0.60
|   |   |   |   |   |   |   |   |--- class: 0.0
|   |   |   |   |   |   |   |--- manufacturer_manufacturer_jac_qgm_3_qgm_3 >  0.60
|   |   |   |   |   |   |   |   |--- title_title_overlap_dlm_dc0_dlm_dc0 <= 5.50
|   |   |   |   |   |   |   |   |   |--- title_title_jac_dlm_dc0_dlm_dc0 <= 0.61
|   |   |   |   |   |   |   |   |   |   |--- manufacturer_manufacturer_overlap_qgm_3_qgm_3 <= 14.50
|   |   |   |   |   |   |   |   |   |   |   |--- class: 0.0
|   |   |   |   |   |   |   |   |   |   |--- manufacturer_manufacturer_overlap_qgm_3_qgm_3 >  14.50
|   |   |   |   |   |   |   |   |   |   |   |--- truncated branch of depth 10
|   |   |   |   |   |   |   |   |   |--- title_title_jac_dlm_dc0_dlm_dc0 >  0.61
|   |   |   |   |   |   |   |   |   |   |--- manufacturer_manufacturer_overlap_qgm_3_qgm_3 <= inf
|   |   |   |   |   |   |   |   |   |   |   |--- class: 1.0
|   |   |   |   |   |   |   |   |   |   |--- manufacturer_manufacturer_overlap_qgm_3_qgm_3 >  inf
|   |   |   |   |   |   |   |   |   |   |   |--- truncated branch of depth 7
|   |   |   |   |   |   |   |   |--- title_title_overlap_dlm_dc0_dlm_dc0 >  5.50
|   |   |   |   |   |   |   |   |   |--- title_title_dice_dlm_dc0_dlm_dc0 <= 0.88
|   |   |   |   |   |   |   |   |   |   |--- class: 0.0
|   |   |   |   |   |   |   |   |   |--- title_title_dice_dlm_dc0_dlm_dc0 >  0.88
|   |   |   |   |   |   |   |   |   |   |--- price_price_anm <= 0.48
|   |   |   |   |   |   |   |   |   |   |   |--- class: 0.0
|   |   |   |   |   |   |   |   |   |   |--- price_price_anm >  0.48
|   |   |   |   |   |   |   |   |   |   |   |--- class: 1.0
|   |   |   |   |--- price_price_lev_dist >  3.50
|   |   |   |   |   |--- title_title_cos_dlm_dc0_dlm_dc0 <= 0.67
|   |   |   |   |   |   |--- class: 0.0
|   |   |   |   |   |--- title_title_cos_dlm_dc0_dlm_dc0 >  0.67
|   |   |   |   |   |   |--- price_price_anm <= 0.32
|   |   |   |   |   |   |   |--- title_title_overlap_dlm_dc0_dlm_dc0 <= 3.50
|   |   |   |   |   |   |   |   |--- class: 0.0
|   |   |   |   |   |   |   |--- title_title_overlap_dlm_dc0_dlm_dc0 >  3.50
|   |   |   |   |   |   |   |   |--- price_price_lev_dist <= 6.50
|   |   |   |   |   |   |   |   |   |--- title_title_dice_dlm_dc0_dlm_dc0 <= 0.87
|   |   |   |   |   |   |   |   |   |   |--- title_title_overlap_dlm_dc0_dlm_dc0 <= 5.50
|   |   |   |   |   |   |   |   |   |   |   |--- class: 0.0
|   |   |   |   |   |   |   |   |   |   |--- title_title_overlap_dlm_dc0_dlm_dc0 >  5.50
|   |   |   |   |   |   |   |   |   |   |   |--- truncated branch of depth 4
|   |   |   |   |   |   |   |   |   |--- title_title_dice_dlm_dc0_dlm_dc0 >  0.87
|   |   |   |   |   |   |   |   |   |   |--- class: 0.0
|   |   |   |   |   |   |   |   |--- price_price_lev_dist >  6.50
|   |   |   |   |   |   |   |   |   |--- class: 1.0
|   |   |   |   |   |   |--- price_price_anm >  0.32
|   |   |   |   |   |   |   |--- manufacturer_manufacturer_lev_dist <= 6.00
|   |   |   |   |   |   |   |   |--- class: 1.0
|   |   |   |   |   |   |   |--- manufacturer_manufacturer_lev_dist >  6.00
|   |   |   |   |   |   |   |   |--- class: 0.0
|   |   |--- price_price_anm >  0.53
|   |   |   |--- price_price_exm <= 0.50
|   |   |   |   |--- title_title_jac_dlm_dc0_dlm_dc0 <= 0.46
|   |   |   |   |   |--- manufacturer_manufacturer_overlap_qgm_3_qgm_3 <= 11.50
|   |   |   |   |   |   |--- price_price_anm <= 0.82
|   |   |   |   |   |   |   |--- title_title_cos_dlm_dc0_dlm_dc0 <= 0.40
|   |   |   |   |   |   |   |   |--- class: 0.0
|   |   |   |   |   |   |   |--- title_title_cos_dlm_dc0_dlm_dc0 >  0.40
|   |   |   |   |   |   |   |   |--- price_price_lev_dist <= 1.50
|   |   |   |   |   |   |   |   |   |--- title_title_jac_dlm_dc0_dlm_dc0 <= 0.35
|   |   |   |   |   |   |   |   |   |   |--- title_title_overlap_dlm_dc0_dlm_dc0 <= 4.50
|   |   |   |   |   |   |   |   |   |   |   |--- class: 0.0
|   |   |   |   |   |   |   |   |   |   |--- title_title_overlap_dlm_dc0_dlm_dc0 >  4.50
|   |   |   |   |   |   |   |   |   |   |   |--- class: 1.0
|   |   |   |   |   |   |   |   |   |--- title_title_jac_dlm_dc0_dlm_dc0 >  0.35
|   |   |   |   |   |   |   |   |   |   |--- class: 0.0
|   |   |   |   |   |   |   |   |--- price_price_lev_dist >  1.50
|   |   |   |   |   |   |   |   |   |--- manufacturer_manufacturer_dice_qgm_3_qgm_3 <= 0.51
|   |   |   |   |   |   |   |   |   |   |--- manufacturer_manufacturer_dice_qgm_3_qgm_3 <= 0.05
|   |   |   |   |   |   |   |   |   |   |   |--- truncated branch of depth 4
|   |   |   |   |   |   |   |   |   |   |--- manufacturer_manufacturer_dice_qgm_3_qgm_3 >  0.05
|   |   |   |   |   |   |   |   |   |   |   |--- truncated branch of depth 4
|   |   |   |   |   |   |   |   |   |--- manufacturer_manufacturer_dice_qgm_3_qgm_3 >  0.51
|   |   |   |   |   |   |   |   |   |   |--- price_price_anm <= 0.79
|   |   |   |   |   |   |   |   |   |   |   |--- truncated branch of depth 21
|   |   |   |   |   |   |   |   |   |   |--- price_price_anm >  0.79
|   |   |   |   |   |   |   |   |   |   |   |--- class: 0.0
|   |   |   |   |   |   |--- price_price_anm >  0.82
|   |   |   |   |   |   |   |--- manufacturer_manufacturer_dice_qgm_3_qgm_3 <= 0.55
|   |   |   |   |   |   |   |   |--- class: 0.0
|   |   |   |   |   |   |   |--- manufacturer_manufacturer_dice_qgm_3_qgm_3 >  0.55
|   |   |   |   |   |   |   |   |--- price_price_lev_dist <= 4.50
|   |   |   |   |   |   |   |   |   |--- title_title_jac_dlm_dc0_dlm_dc0 <= 0.46
|   |   |   |   |   |   |   |   |   |   |--- manufacturer_manufacturer_overlap_qgm_3_qgm_3 <= 8.00
|   |   |   |   |   |   |   |   |   |   |   |--- truncated branch of depth 21
|   |   |   |   |   |   |   |   |   |   |--- manufacturer_manufacturer_overlap_qgm_3_qgm_3 >  8.00
|   |   |   |   |   |   |   |   |   |   |   |--- truncated branch of depth 4
|   |   |   |   |   |   |   |   |   |--- title_title_jac_dlm_dc0_dlm_dc0 >  0.46
|   |   |   |   |   |   |   |   |   |   |--- class: 0.0
|   |   |   |   |   |   |   |   |--- price_price_lev_dist >  4.50
|   |   |   |   |   |   |   |   |   |--- price_price_anm <= 0.92
|   |   |   |   |   |   |   |   |   |   |--- title_title_overlap_dlm_dc0_dlm_dc0 <= 5.50
|   |   |   |   |   |   |   |   |   |   |   |--- truncated branch of depth 4
|   |   |   |   |   |   |   |   |   |   |--- title_title_overlap_dlm_dc0_dlm_dc0 >  5.50
|   |   |   |   |   |   |   |   |   |   |   |--- class: 1.0
|   |   |   |   |   |   |   |   |   |--- price_price_anm >  0.92
|   |   |   |   |   |   |   |   |   |   |--- title_title_overlap_dlm_dc0_dlm_dc0 <= 3.50
|   |   |   |   |   |   |   |   |   |   |   |--- class: 0.0
|   |   |   |   |   |   |   |   |   |   |--- title_title_overlap_dlm_dc0_dlm_dc0 >  3.50
|   |   |   |   |   |   |   |   |   |   |   |--- truncated branch of depth 4
|   |   |   |   |   |--- manufacturer_manufacturer_overlap_qgm_3_qgm_3 >  11.50
|   |   |   |   |   |   |--- manufacturer_manufacturer_dice_qgm_3_qgm_3 <= 0.95
|   |   |   |   |   |   |   |--- class: 0.0
|   |   |   |   |   |   |--- manufacturer_manufacturer_dice_qgm_3_qgm_3 >  0.95
|   |   |   |   |   |   |   |--- manufacturer_manufacturer_overlap_qgm_3_qgm_3 <= 28.50
|   |   |   |   |   |   |   |   |--- manufacturer_manufacturer_overlap_qgm_3_qgm_3 <= 14.50
|   |   |   |   |   |   |   |   |   |--- price_price_lev_dist <= 3.50
|   |   |   |   |   |   |   |   |   |   |--- title_title_jac_dlm_dc0_dlm_dc0 <= 0.31
|   |   |   |   |   |   |   |   |   |   |   |--- truncated branch of depth 2
|   |   |   |   |   |   |   |   |   |   |--- title_title_jac_dlm_dc0_dlm_dc0 >  0.31
|   |   |   |   |   |   |   |   |   |   |   |--- class: 1.0
|   |   |   |   |   |   |   |   |   |--- price_price_lev_dist >  3.50
|   |   |   |   |   |   |   |   |   |   |--- class: 0.0
|   |   |   |   |   |   |   |   |--- manufacturer_manufacturer_overlap_qgm_3_qgm_3 >  14.50
|   |   |   |   |   |   |   |   |   |--- class: 1.0
|   |   |   |   |   |   |   |--- manufacturer_manufacturer_overlap_qgm_3_qgm_3 >  28.50
|   |   |   |   |   |   |   |   |--- title_title_cos_dlm_dc0_dlm_dc0 <= 0.50
|   |   |   |   |   |   |   |   |   |--- class: 0.0
|   |   |   |   |   |   |   |   |--- title_title_cos_dlm_dc0_dlm_dc0 >  0.50
|   |   |   |   |   |   |   |   |   |--- class: 1.0
|   |   |   |   |--- title_title_jac_dlm_dc0_dlm_dc0 >  0.46
|   |   |   |   |   |--- title_title_cos_dlm_dc0_dlm_dc0 <= 0.68
|   |   |   |   |   |   |--- manufacturer_manufacturer_overlap_qgm_3_qgm_3 <= 14.00
|   |   |   |   |   |   |   |--- class: 0.0
|   |   |   |   |   |   |--- manufacturer_manufacturer_overlap_qgm_3_qgm_3 >  14.00
|   |   |   |   |   |   |   |--- title_title_overlap_dlm_dc0_dlm_dc0 <= 7.50
|   |   |   |   |   |   |   |   |--- price_price_anm <= 0.60
|   |   |   |   |   |   |   |   |   |--- title_title_overlap_dlm_dc0_dlm_dc0 <= 3.50
|   |   |   |   |   |   |   |   |   |   |--- class: 0.0
|   |   |   |   |   |   |   |   |   |--- title_title_overlap_dlm_dc0_dlm_dc0 >  3.50
|   |   |   |   |   |   |   |   |   |   |--- title_title_overlap_dlm_dc0_dlm_dc0 <= 5.50
|   |   |   |   |   |   |   |   |   |   |   |--- truncated branch of depth 4
|   |   |   |   |   |   |   |   |   |   |--- title_title_overlap_dlm_dc0_dlm_dc0 >  5.50
|   |   |   |   |   |   |   |   |   |   |   |--- class: 0.0
|   |   |   |   |   |   |   |   |--- price_price_anm >  0.60
|   |   |   |   |   |   |   |   |   |--- price_price_anm <= 0.64
|   |   |   |   |   |   |   |   |   |   |--- price_price_lev_dist <= 3.50
|   |   |   |   |   |   |   |   |   |   |   |--- truncated branch of depth 2
|   |   |   |   |   |   |   |   |   |   |--- price_price_lev_dist >  3.50
|   |   |   |   |   |   |   |   |   |   |   |--- class: 1.0
|   |   |   |   |   |   |   |   |   |--- price_price_anm >  0.64
|   |   |   |   |   |   |   |   |   |   |--- title_title_cos_dlm_dc0_dlm_dc0 <= 0.64
|   |   |   |   |   |   |   |   |   |   |   |--- class: 0.0
|   |   |   |   |   |   |   |   |   |   |--- title_title_cos_dlm_dc0_dlm_dc0 >  0.64
|   |   |   |   |   |   |   |   |   |   |   |--- truncated branch of depth 13
|   |   |   |   |   |   |   |--- title_title_overlap_dlm_dc0_dlm_dc0 >  7.50
|   |   |   |   |   |   |   |   |--- class: 0.0
|   |   |   |   |   |--- title_title_cos_dlm_dc0_dlm_dc0 >  0.68
|   |   |   |   |   |   |--- price_price_anm <= 0.73
|   |   |   |   |   |   |   |--- title_title_cos_dlm_dc0_dlm_dc0 <= 0.80
|   |   |   |   |   |   |   |   |--- price_price_lev_dist <= 3.50
|   |   |   |   |   |   |   |   |   |--- title_title_jac_dlm_dc0_dlm_dc0 <= 0.56
|   |   |   |   |   |   |   |   |   |   |--- class: 0.0
|   |   |   |   |   |   |   |   |   |--- title_title_jac_dlm_dc0_dlm_dc0 >  0.56
|   |   |   |   |   |   |   |   |   |   |--- price_price_anm <= 0.64
|   |   |   |   |   |   |   |   |   |   |   |--- class: 0.0
|   |   |   |   |   |   |   |   |   |   |--- price_price_anm >  0.64
|   |   |   |   |   |   |   |   |   |   |   |--- truncated branch of depth 5
|   |   |   |   |   |   |   |   |--- price_price_lev_dist >  3.50
|   |   |   |   |   |   |   |   |   |--- title_title_dice_dlm_dc0_dlm_dc0 <= 0.78
|   |   |   |   |   |   |   |   |   |   |--- title_title_overlap_dlm_dc0_dlm_dc0 <= 4.50
|   |   |   |   |   |   |   |   |   |   |   |--- truncated branch of depth 5
|   |   |   |   |   |   |   |   |   |   |--- title_title_overlap_dlm_dc0_dlm_dc0 >  4.50
|   |   |   |   |   |   |   |   |   |   |   |--- truncated branch of depth 6
|   |   |   |   |   |   |   |   |   |--- title_title_dice_dlm_dc0_dlm_dc0 >  0.78
|   |   |   |   |   |   |   |   |   |   |--- class: 0.0
|   |   |   |   |   |   |   |--- title_title_cos_dlm_dc0_dlm_dc0 >  0.80
|   |   |   |   |   |   |   |   |--- manufacturer_manufacturer_dice_qgm_3_qgm_3 <= inf
|   |   |   |   |   |   |   |   |   |--- class: 1.0
|   |   |   |   |   |   |   |   |--- manufacturer_manufacturer_dice_qgm_3_qgm_3 >  inf
|   |   |   |   |   |   |   |   |   |--- title_title_overlap_dlm_dc0_dlm_dc0 <= 7.50
|   |   |   |   |   |   |   |   |   |   |--- price_price_anm <= 0.68
|   |   |   |   |   |   |   |   |   |   |   |--- truncated branch of depth 7
|   |   |   |   |   |   |   |   |   |   |--- price_price_anm >  0.68
|   |   |   |   |   |   |   |   |   |   |   |--- class: 0.0
|   |   |   |   |   |   |   |   |   |--- title_title_overlap_dlm_dc0_dlm_dc0 >  7.50
|   |   |   |   |   |   |   |   |   |   |--- class: 0.0
|   |   |   |   |   |   |--- price_price_anm >  0.73
|   |   |   |   |   |   |   |--- manufacturer_manufacturer_jac_qgm_3_qgm_3 <= 0.27
|   |   |   |   |   |   |   |   |--- title_title_cos_dlm_dc0_dlm_dc0 <= 0.85
|   |   |   |   |   |   |   |   |   |--- class: 1.0
|   |   |   |   |   |   |   |   |--- title_title_cos_dlm_dc0_dlm_dc0 >  0.85
|   |   |   |   |   |   |   |   |   |--- class: 0.0
|   |   |   |   |   |   |   |--- manufacturer_manufacturer_jac_qgm_3_qgm_3 >  0.27
|   |   |   |   |   |   |   |   |--- title_title_jac_dlm_dc0_dlm_dc0 <= 0.65
|   |   |   |   |   |   |   |   |   |--- manufacturer_manufacturer_cos_qgm_3_qgm_3 <= inf
|   |   |   |   |   |   |   |   |   |   |--- manufacturer_manufacturer_overlap_qgm_3_qgm_3 <= 14.50
|   |   |   |   |   |   |   |   |   |   |   |--- truncated branch of depth 6
|   |   |   |   |   |   |   |   |   |   |--- manufacturer_manufacturer_overlap_qgm_3_qgm_3 >  14.50
